77 128
10 0.331860 -0.020629 0.105490 0.181508 -0.137138 -0.051790 0.231357 0.135244 0.052991 -0.043974 -0.177520 -0.197490 -0.128367 -0.207086 0.058990 0.071287 -0.081385 0.221470 0.263980 -0.069627 0.414542 0.135589 -0.299979 -0.002976 0.297542 -0.111293 0.028088 0.005656 -0.226524 -0.179171 -0.049409 0.124493 -0.046752 0.061218 0.010213 -0.015939 -0.048191 -0.043310 0.151066 0.398277 -0.022192 0.016654 -0.201645 0.121659 0.065823 -0.127369 0.053274 -0.137714 0.104280 0.274577 0.278491 0.117826 0.236362 -0.006012 -0.084405 0.325187 0.031795 0.114310 -0.123699 -0.105323 0.082442 -0.070226 -0.045368 -0.083081 -0.122836 0.231681 0.101489 -0.055904 0.069956 -0.159690 0.076748 -0.058106 0.142723 -0.173169 0.004408 -0.048779 -0.031433 0.016558 0.011382 -0.016162 -0.192189 0.115289 -0.294213 -0.144764 0.226269 -0.016047 0.243886 0.086392 0.250217 0.045811 0.284260 0.150729 -0.070484 -0.119405 0.043830 0.125785 0.167640 -0.272387 0.149358 0.024324 -0.179059 0.019245 0.287020 0.117542 0.032819 -0.083485 0.042876 0.181639 -0.291579 0.118083 0.125065 0.001956 -0.194244 -0.195663 0.246077 0.136673 0.165250 -0.048090 -0.275107 -0.145942 -0.016427 0.000196 0.225529 -0.050679 -0.027210 -0.048965 0.170435 0.098300
36 0.106314 -0.220709 -0.117696 -0.077138 -0.255770 0.092472 -0.431666 0.509762 0.119096 0.000421 -0.267732 -0.506643 0.058367 -0.223662 0.213248 -0.045496 -0.068668 0.155840 0.053945 -0.115233 0.280988 0.179494 -0.108003 -0.000390 0.182136 0.186165 -0.276570 -0.264921 -0.200007 0.327842 -0.038838 -0.308873 -0.017599 -0.091733 0.188915 -0.152913 0.120074 0.022441 -0.121260 0.262293 -0.022503 0.095817 -0.038905 -0.215074 -0.086235 -0.208482 -0.261805 0.157995 -0.009788 -0.071196 -0.220920 0.150896 0.075157 -0.229159 -0.449409 0.048973 0.007417 -0.031023 -0.061746 -0.195003 -0.007852 0.006252 -0.084742 -0.075732 -0.016884 0.056282 -0.066213 -0.290117 -0.048447 0.236588 -0.162857 0.109994 0.007449 0.124393 0.070775 -0.123399 0.220470 -0.267136 0.072955 0.267867 0.198171 -0.012900 -0.025817 -0.105208 -0.015469 0.211968 -0.114747 0.067393 0.221595 0.147293 0.039762 0.052985 -0.132554 0.382079 0.011929 -0.076727 0.135387 0.178647 -0.050411 0.012653 -0.171964 -0.032547 -0.218995 -0.215929 -0.327774 0.003981 -0.100234 0.013839 -0.408672 -0.301214 0.059108 0.221129 0.373728 -0.127795 -0.085776 -0.145717 0.370589 -0.140278 0.063097 -0.391887 -0.242047 -0.403435 0.303177 0.079488 -0.137968 0.006246 -0.094210 0.004353
37 -0.193815 -0.153389 -0.130355 -0.321922 0.011013 0.128450 -0.712985 0.284337 -0.114072 0.004948 -0.115667 -0.233664 0.323969 -0.101231 0.085051 -0.123333 -0.101094 0.015142 -0.108798 -0.122516 -0.038292 -0.007569 0.216456 0.015635 -0.237729 0.158729 -0.381458 -0.378186 0.072555 0.732131 0.215677 -0.171595 -0.073202 0.141360 0.330440 0.004118 0.108452 -0.061499 -0.313949 -0.421685 0.206739 -0.010144 0.406644 -0.277560 -0.513648 -0.137242 -0.170090 0.119085 -0.116041 -0.292410 -0.533520 -0.052309 -0.321858 -0.083327 -0.402082 -0.241339 0.147926 -0.105093 0.058842 -0.349816 -0.136964 -0.012668 -0.034386 0.007987 0.237547 -0.244437 -0.081897 -0.276464 -0.005978 0.351528 -0.186174 0.309913 -0.237243 0.186534 -0.079572 -0.154776 -0.098340 -0.374307 0.149183 0.160543 0.316147 -0.064679 0.398046 0.063847 -0.429163 0.296053 -0.351032 -0.016706 0.010816 0.134620 -0.474368 -0.291196 -0.097287 0.345372 -0.030903 -0.237223 -0.016579 0.457040 -0.328961 -0.135472 0.152503 -0.123235 -0.543835 -0.441174 -0.418006 0.254281 -0.309686 -0.199614 -0.319253 -0.452263 -0.309669 0.191074 0.655604 0.137669 -0.379905 -0.538313 0.344438 -0.024968 0.371495 -0.148294 -0.526943 -0.060044 -0.167214 0.259032 -0.098714 0.135617 -0.369309 -0.160369
62 -0.161113 -0.225384 0.002759 -0.380150 0.189539 0.214572 -0.875024 0.406783 -0.122294 0.104275 -0.158682 -0.281757 0.396876 -0.125718 0.198807 -0.130896 -0.220060 0.068668 -0.006829 -0.175547 -0.098835 0.014623 0.284847 0.049878 -0.265085 0.061583 -0.346162 -0.490000 -0.001936 0.725827 0.242622 -0.255834 -0.103587 -0.035151 0.393428 -0.038005 0.120393 0.072870 -0.310370 -0.462811 0.205321 -0.042115 0.362278 -0.293593 -0.576349 -0.205031 -0.245533 0.281487 -0.180568 -0.267679 -0.547024 -0.091239 -0.403614 -0.261477 -0.541679 -0.209011 0.143123 -0.163218 0.111598 -0.525091 -0.162368 0.127818 0.092276 0.003023 0.234055 -0.319226 -0.051176 -0.393858 -0.189566 0.536781 -0.116260 0.313241 -0.276169 0.195188 -0.107331 -0.130637 -0.044355 -0.321035 0.018338 0.131279 0.457270 -0.021611 0.366042 0.048342 -0.512989 0.424423 -0.437462 0.033978 -0.013587 0.170283 -0.516023 -0.353543 -0.058511 0.432083 -0.069564 -0.114557 -0.000900 0.480783 -0.274309 -0.139379 0.135198 -0.016066 -0.520810 -0.384739 -0.563125 0.328271 -0.385950 -0.258693 -0.476596 -0.482503 -0.363356 0.214621 0.892584 0.186428 -0.559252 -0.710172 0.306787 -0.065552 0.400464 -0.195610 -0.724886 -0.105065 -0.302070 0.223520 -0.107495 0.023469 -0.493067 -0.193766
19 0.396342 -0.028585 -0.074775 0.168875 -0.433990 -0.046658 0.021909 0.334078 0.083524 -0.055890 -0.341007 -0.416256 -0.181905 -0.309739 0.161874 0.013873 0.000123 0.273419 0.241445 -0.192188 0.502686 0.199021 -0.257606 -0.042012 0.407102 0.027604 -0.289777 -0.072269 -0.257589 0.017825 -0.067168 0.042743 -0.008925 0.130149 0.007914 -0.017573 0.061900 -0.100272 0.105503 0.474512 -0.024490 0.178291 -0.227255 0.013016 0.160757 -0.157949 -0.092786 -0.055675 0.155527 0.156370 0.116113 0.273017 0.313166 -0.018179 -0.200845 0.186797 0.048884 0.011791 -0.146579 -0.006809 0.074144 -0.140571 -0.187855 -0.130577 -0.179816 0.251338 0.031508 -0.122168 0.214433 -0.051785 -0.099224 -0.078307 0.087354 -0.046211 0.088664 -0.122839 0.120813 -0.212041 0.082526 0.178255 -0.121933 0.008659 -0.196964 -0.214326 0.267992 0.064760 0.232167 0.114536 0.386162 0.084873 0.268915 0.231633 -0.122341 0.140469 0.072406 0.061643 0.109153 -0.101450 0.068422 0.039985 -0.231035 -0.123682 0.056907 -0.037224 -0.064005 -0.103873 0.088941 0.167431 -0.374256 -0.110737 0.198654 0.093640 -0.099666 -0.277866 0.265148 0.131472 0.312693 -0.187868 -0.062973 -0.293586 0.005953 -0.311530 0.515169 0.043969 -0.059530 0.070048 0.133075 0.072723
65 -0.211031 -0.137259 -0.112329 -0.379631 0.071848 0.158506 -0.871586 0.314370 -0.196516 0.039446 -0.152808 -0.224538 0.379327 -0.127637 0.140770 -0.162023 -0.146997 0.031104 -0.067854 -0.210905 -0.114030 -0.035004 0.339295 0.007394 -0.327191 0.101272 -0.492726 -0.464941 0.099474 0.837613 0.284902 -0.151326 -0.097278 0.181403 0.381031 0.055254 0.129975 -0.058311 -0.344460 -0.607955 0.265185 0.004709 0.499889 -0.302083 -0.598609 -0.158286 -0.172382 0.187899 -0.129767 -0.338988 -0.630304 -0.081511 -0.423302 -0.087337 -0.429980 -0.351898 0.208779 -0.186429 0.108551 -0.418600 -0.185543 0.009247 -0.008555 0.009625 0.275043 -0.352864 -0.077120 -0.314535 -0.003566 0.470586 -0.194869 0.344883 -0.326219 0.230067 -0.106851 -0.170051 -0.140618 -0.432970 0.127738 0.157177 0.401122 -0.082920 0.523931 0.080317 -0.536114 0.385265 -0.415093 0.003581 -0.016855 0.155960 -0.612040 -0.380443 -0.075877 0.412986 -0.051204 -0.216373 -0.099266 0.563240 -0.377622 -0.169107 0.219315 -0.136657 -0.651004 -0.495104 -0.487636 0.341143 -0.371850 -0.275200 -0.405884 -0.557560 -0.415798 0.193755 0.814961 0.188648 -0.486287 -0.700899 0.349245 -0.064813 0.520789 -0.115172 -0.678567 -0.029415 -0.269908 0.303479 -0.093137 0.153798 -0.481602 -0.221694
38 -0.230367 -0.163902 -0.105752 -0.401786 0.081770 0.171505 -0.850905 0.303953 -0.163170 0.040812 -0.121510 -0.229342 0.394608 -0.092681 0.117817 -0.167050 -0.149640 0.012105 -0.100670 -0.176188 -0.093958 -0.028866 0.287653 0.027380 -0.306885 0.124347 -0.449279 -0.452183 0.094940 0.852128 0.293637 -0.184954 -0.091842 0.165851 0.398192 0.012461 0.115464 -0.053360 -0.357261 -0.578513 0.251163 -0.014465 0.494009 -0.322877 -0.617451 -0.141864 -0.194280 0.179613 -0.146597 -0.351355 -0.637572 -0.082791 -0.428482 -0.096007 -0.442992 -0.320821 0.171102 -0.136431 0.111989 -0.425858 -0.175515 0.021488 -0.009175 0.034357 0.281614 -0.329339 -0.082636 -0.304759 -0.049827 0.453445 -0.199538 0.357439 -0.298103 0.220899 -0.114109 -0.175878 -0.125811 -0.403286 0.124714 0.158669 0.403265 -0.080929 0.504659 0.099048 -0.543109 0.358106 -0.453982 -0.015337 -0.022761 0.156670 -0.589955 -0.375123 -0.101103 0.398986 -0.064123 -0.238140 -0.050700 0.549877 -0.395173 -0.154781 0.203218 -0.120432 -0.623225 -0.482431 -0.486734 0.317762 -0.365271 -0.267710 -0.376191 -0.538344 -0.414100 0.192260 0.815875 0.196060 -0.480005 -0.674686 0.342265 -0.030779 0.458924 -0.132293 -0.660146 -0.035291 -0.283704 0.295921 -0.114334 0.122822 -0.453364 -0.202666
18 -0.163153 -0.136924 -0.411839 -0.041300 -0.533551 -0.187008 0.352752 -0.023950 0.292074 -0.291687 0.038724 -0.347125 0.002380 0.006940 -0.275141 -0.048699 0.171997 -0.098540 -0.383408 0.264655 0.550690 0.126404 -0.603485 -0.027952 0.230412 0.489326 0.024220 0.146047 0.014435 0.219210 -0.082105 -0.146351 0.057003 0.436574 0.164827 -0.213412 -0.007521 -0.438930 -0.136436 0.417552 -0.078301 -0.086471 0.181216 -0.270487 -0.119940 0.051440 0.029762 -0.500036 0.097787 -0.006096 -0.167406 0.215279 0.303079 0.354278 -0.005732 0.174913 -0.054127 0.416325 -0.235305 0.162659 0.130553 -0.371952 -0.453915 0.061340 0.134573 0.324196 -0.131627 0.126853 0.312734 -0.464265 -0.229810 0.320376 0.309871 0.004901 0.030560 -0.245598 -0.087216 -0.108451 0.510767 0.272607 -0.294803 -0.066868 -0.065334 0.130795 0.134123 -0.409038 0.081393 -0.108665 0.150517 0.078540 0.211782 0.169770 -0.368269 -0.143967 0.094134 -0.607812 0.245437 -0.066296 -0.273295 -0.032625 -0.113144 -0.208137 -0.092691 -0.327235 0.235174 -0.246651 0.020423 0.332401 0.079311 -0.072113 0.082471 0.044894 -0.352580 -0.224358 0.566592 0.447732 0.532254 0.267515 -0.589733 -0.198432 0.323161 0.115098 0.456564 0.099497 -0.165341 0.245585 0.448398 0.231319
33 -0.396711 -0.177950 -0.244274 -0.409688 -0.033336 0.103954 -0.734871 0.265123 -0.055292 -0.028858 -0.071964 -0.297647 0.369817 -0.047654 0.064468 -0.141996 -0.083993 -0.085724 -0.294272 -0.005324 0.004535 0.008682 0.116719 0.008620 -0.295814 0.329983 -0.351062 -0.343585 0.106172 0.815689 0.221341 -0.338800 -0.099087 0.273914 0.401352 -0.072635 0.092631 -0.170468 -0.430137 -0.412477 0.146128 -0.028473 0.629496 -0.439464 -0.559632 -0.135744 -0.089120 0.083340 -0.107090 -0.307882 -0.707744 -0.058868 -0.309061 0.036512 -0.363291 -0.305992 0.076907 0.014228 0.040300 -0.245346 -0.186605 -0.064066 -0.108274 0.056054 0.336275 -0.247036 -0.171378 -0.278018 0.006952 0.277853 -0.259520 0.462972 -0.168456 0.308064 -0.060914 -0.218185 -0.085793 -0.371703 0.298492 0.286003 0.362192 -0.131754 0.471300 0.202894 -0.440081 0.178504 -0.407514 -0.055676 -0.032958 0.192929 -0.479579 -0.261291 -0.222089 0.343906 0.023846 -0.499810 -0.092474 0.585458 -0.409549 -0.103371 0.152433 -0.160817 -0.639034 -0.553898 -0.322437 0.192075 -0.324373 -0.162240 -0.229388 -0.552553 -0.367265 0.193658 0.660191 0.133730 -0.285437 -0.460369 0.456263 0.061787 0.225841 -0.138654 -0.496647 0.016190 -0.153299 0.272799 -0.182779 0.236493 -0.269244 -0.089645
20 -0.017864 -0.063747 -0.110938 -0.087946 -0.207332 -0.003429 0.221461 -0.093173 0.148104 -0.092279 0.096873 -0.151330 0.115464 0.068597 -0.226114 -0.119402 0.025703 -0.055923 -0.087865 -0.001617 0.256940 0.034944 -0.321962 0.082992 0.167520 0.122520 0.022605 0.083534 0.061946 0.221380 0.086532 0.067305 0.065047 0.227613 0.137992 -0.178038 -0.090044 -0.198685 0.015900 0.122285 0.047434 -0.118462 -0.057254 -0.059759 -0.265035 0.122241 -0.142551 -0.320024 0.012224 -0.098821 -0.036166 0.126880 0.047375 0.158605 -0.001185 0.115822 -0.009854 0.316706 -0.031244 -0.097120 0.158605 -0.191293 -0.223831 0.133398 0.067560 0.180610 0.030640 0.184332 0.077449 -0.241712 -0.106900 0.104591 0.158930 -0.107508 -0.097547 -0.166240 -0.112271 0.020884 0.119827 -0.004537 -0.247376 0.035136 -0.026713 0.079281 -0.050486 -0.202326 -0.094738 -0.109801 0.105104 0.028041 0.053534 0.005985 -0.184039 -0.099652 -0.130411 -0.137719 0.330623 -0.170955 -0.259427 -0.043764 -0.063184 -0.062385 0.053694 -0.055847 0.041368 -0.085173 0.016907 0.118770 -0.010968 0.027168 -0.052071 -0.045213 -0.084852 -0.029879 0.229198 0.184937 0.140848 0.189585 -0.301428 -0.093490 0.133873 0.030414 0.091794 0.066165 -0.114490 -0.106380 0.245479 0.080748
16 0.293899 0.077018 0.253666 -0.175330 0.044925 0.155906 0.708614 -0.473961 0.173391 0.174830 0.321592 0.098127 0.326918 0.290339 -0.468224 -0.420541 -0.111675 0.023244 0.381556 -0.509885 0.169549 -0.034112 -0.452964 0.370054 0.475148 -0.494458 0.093061 0.260719 0.157945 0.171322 0.452252 0.730328 0.199691 0.263503 0.144383 -0.393090 -0.348486 -0.149913 0.554423 -0.049330 0.215554 -0.360551 -0.810169 0.350834 -0.673151 0.578966 -0.590443 -0.538885 -0.029642 -0.238469 0.363343 0.301956 -0.121646 0.130261 0.188093 0.285875 0.037528 0.570991 0.261540 -0.542392 0.566384 -0.145061 -0.210605 0.517447 -0.054342 0.322482 0.371524 0.783402 -0.142463 -0.323244 0.093094 -0.274739 0.204298 -0.606891 -0.381986 -0.174328 -0.337048 0.487651 -0.468748 -0.599744 -0.683998 0.202643 -0.160790 0.062672 -0.222774 -0.359570 -0.357765 -0.212714 0.168709 -0.134754 0.051809 -0.160542 -0.097607 -0.283549 -0.769939 0.579867 0.926037 -0.831061 -0.498926 -0.117080 -0.124697 0.129377 0.560312 0.509337 0.069054 -0.020069 0.131351 0.030182 -0.064617 0.383929 -0.253542 -0.428282 -0.055326 0.145406 0.226952 0.254902 -0.515373 0.400154 -0.428736 0.007999 0.266666 -0.047628 -0.309597 -0.003234 -0.126213 -0.882546 0.391596 -0.024409
69 -0.304446 -0.183733 -0.152068 -0.406174 0.080273 0.132350 -0.944322 0.383048 -0.185692 0.009160 -0.193829 -0.287411 0.382936 -0.165155 0.181369 -0.118435 -0.160872 0.025626 -0.166696 -0.100169 -0.054120 -0.005442 0.293313 -0.023748 -0.380226 0.208666 -0.478076 -0.505862 0.066380 0.860750 0.261064 -0.289768 -0.145039 0.214599 0.432792 0.053088 0.161330 -0.094846 -0.452010 -0.572565 0.224331 0.002615 0.679607 -0.406351 -0.603213 -0.249617 -0.070684 0.200947 -0.128979 -0.278183 -0.725284 -0.112799 -0.403509 -0.069842 -0.491221 -0.336575 0.182076 -0.169924 0.054804 -0.395896 -0.259577 0.003354 -0.007218 -0.030075 0.334265 -0.364340 -0.135841 -0.425215 -0.001830 0.468491 -0.202178 0.464622 -0.305868 0.308308 -0.074581 -0.181991 -0.134411 -0.472369 0.246911 0.258834 0.491185 -0.112397 0.539440 0.119763 -0.528860 0.381373 -0.392431 0.019759 -0.036027 0.200665 -0.613703 -0.365079 -0.136326 0.418532 0.049513 -0.391245 -0.179257 0.669034 -0.357056 -0.162642 0.225469 -0.159515 -0.727901 -0.599191 -0.469608 0.330657 -0.426604 -0.245979 -0.421233 -0.624782 -0.428084 0.244307 0.840417 0.166033 -0.468467 -0.718068 0.486460 -0.055792 0.449738 -0.137895 -0.743564 0.047037 -0.242436 0.309109 -0.123601 0.285967 -0.484734 -0.178202
68 -0.304755 -0.206193 -0.156691 -0.373060 0.059527 0.116524 -0.866388 0.373671 -0.132722 -0.002332 -0.164980 -0.302944 0.357134 -0.153451 0.167308 -0.084618 -0.149279 0.008988 -0.193128 -0.040574 -0.012839 0.016566 0.219749 -0.024314 -0.337063 0.246163 -0.392560 -0.458056 0.035505 0.786860 0.202647 -0.338581 -0.140331 0.170223 0.409403 0.007653 0.146738 -0.085734 -0.446844 -0.451218 0.175130 -0.003772 0.644451 -0.400894 -0.538959 -0.242482 -0.066529 0.183246 -0.126958 -0.245300 -0.678102 -0.107081 -0.341396 -0.081483 -0.477022 -0.283834 0.137045 -0.116678 0.033726 -0.352295 -0.244499 0.003916 -0.010576 -0.028972 0.317600 -0.319168 -0.151357 -0.415309 -0.024422 0.414748 -0.192809 0.455611 -0.248073 0.305461 -0.054977 -0.175286 -0.095824 -0.429464 0.253383 0.269324 0.456295 -0.093791 0.456326 0.126065 -0.459453 0.325304 -0.365058 0.008806 -0.030486 0.197850 -0.514044 -0.311798 -0.150201 0.374573 0.072582 -0.409686 -0.145269 0.606166 -0.316250 -0.129706 0.177227 -0.129206 -0.652547 -0.553128 -0.426117 0.272072 -0.393981 -0.195368 -0.389698 -0.565927 -0.366443 0.239932 0.763383 0.132899 -0.407317 -0.621388 0.492974 -0.033252 0.328816 -0.162661 -0.671178 0.042017 -0.194971 0.267099 -0.131151 0.262864 -0.412660 -0.133030
1 1.068038 0.869732 0.406184 0.838516 0.028291 -0.572901 0.691506 -0.323195 -0.901679 -0.098520 -0.965872 0.455980 -0.643188 -0.953553 0.415229 0.330968 -0.144146 0.868013 1.047227 -0.670157 0.484002 -0.031565 0.413702 -0.486352 0.006284 -1.052106 -0.763086 -0.083217 -0.205722 -0.825462 0.170638 1.541662 -0.352908 1.165251 -0.359614 1.368879 0.111223 -0.405278 0.571817 -0.544346 0.452598 0.429247 0.408664 0.809219 0.484444 -0.429555 1.329038 -0.392513 0.609066 1.005584 0.746662 0.065914 0.407307 0.674196 0.637114 -0.067575 0.814661 -0.761550 -0.287010 0.240732 -0.246738 -0.411838 -0.011196 -0.518714 -0.388657 -0.145661 0.260954 -0.038386 1.234808 -0.299076 0.520643 -0.288933 -0.547451 -0.387624 -0.029386 0.107658 -0.931615 -0.409940 0.210830 -0.372756 -0.484739 0.021581 0.121608 -0.462840 0.515985 0.144598 1.426902 0.483822 0.329954 -0.197425 -0.114349 0.034322 0.380870 -0.692356 0.568792 0.389224 -1.070622 -0.326409 0.522808 -0.220050 0.416653 -0.554719 0.231737 0.160355 0.605227 0.356399 0.071170 0.227091 -0.556248 0.078109 -0.106318 -0.406986 -1.007013 -0.340890 0.616186 -0.364081 0.092733 -0.573142 0.651828 0.761065 -0.410743 1.075003 0.075484 0.225359 0.611212 0.898550 -0.212220 -0.157631
67 -0.284848 -0.237796 -0.089697 -0.429021 0.138390 0.185331 -0.814591 0.329373 -0.076252 0.064716 -0.080813 -0.278344 0.430932 -0.055534 0.104185 -0.153407 -0.170807 -0.013276 -0.149517 -0.101683 -0.078068 0.001079 0.192209 0.051611 -0.279956 0.167057 -0.321379 -0.420169 0.057368 0.791971 0.259030 -0.291062 -0.092026 0.086998 0.427660 -0.098760 0.098273 -0.030796 -0.359704 -0.467100 0.194179 -0.079362 0.444685 -0.350001 -0.642476 -0.140863 -0.230675 0.184181 -0.164856 -0.310451 -0.619259 -0.085463 -0.398805 -0.150930 -0.494599 -0.225958 0.118699 -0.047092 0.104890 -0.482944 -0.145090 0.053046 0.015995 0.055081 0.308113 -0.288162 -0.092481 -0.317155 -0.153208 0.435578 -0.157382 0.385250 -0.210460 0.215150 -0.110463 -0.166520 -0.086056 -0.306273 0.107004 0.163684 0.401765 -0.048370 0.403117 0.133032 -0.521640 0.304811 -0.483246 -0.020414 -0.041739 0.174483 -0.510814 -0.353919 -0.129720 0.376407 -0.088891 -0.252842 0.034561 0.478107 -0.368066 -0.139679 0.147982 -0.046501 -0.552368 -0.438932 -0.477010 0.269471 -0.380147 -0.228125 -0.376578 -0.488789 -0.394461 0.189106 0.835455 0.190816 -0.465382 -0.613428 0.332549 0.029238 0.286037 -0.175472 -0.642623 -0.029156 -0.294821 0.229417 -0.149595 0.053800 -0.400087 -0.155195
17 -0.034444 -0.072760 -0.299569 -0.005708 -0.456253 -0.143344 0.364563 -0.064731 0.246368 -0.219930 0.039194 -0.269954 -0.019833 0.017229 -0.253525 -0.077922 0.137056 -0.071600 -0.238927 0.138062 0.464500 0.094608 -0.509814 -0.004004 0.254073 0.326691 -0.006297 0.155205 0.016426 0.152682 -0.043116 -0.017501 0.084719 0.368600 0.106115 -0.171550 -0.030453 -0.349676 -0.022876 0.345762 -0.036296 -0.061444 0.023191 -0.149914 -0.091884 0.107968 -0.039434 -0.438146 0.103230 -0.024080 -0.069939 0.225092 0.254942 0.287712 0.028904 0.153667 -0.020115 0.358868 -0.170399 0.118311 0.158869 -0.315870 -0.386064 0.070590 0.062035 0.284175 -0.070547 0.187137 0.273461 -0.396259 -0.178739 0.182000 0.258025 -0.053253 0.001328 -0.194425 -0.079613 -0.060972 0.345907 0.165624 -0.326538 -0.035444 -0.071832 0.081245 0.125052 -0.352963 0.059880 -0.092675 0.156249 0.040334 0.202868 0.144138 -0.280565 -0.140304 0.013693 -0.375978 0.263844 -0.157299 -0.246802 -0.028553 -0.113829 -0.169349 -0.007087 -0.188410 0.200944 -0.207335 0.065972 0.275308 0.049307 -0.015087 0.075796 -0.007680 -0.324328 -0.182118 0.488886 0.386850 0.355437 0.213780 -0.465358 -0.164130 0.304009 0.058515 0.378235 0.074616 -0.123403 0.120702 0.390769 0.163123
34 0.294994 -0.242773 -0.097973 0.063253 -0.341327 0.022337 -0.385748 0.717478 0.156084 0.021989 -0.474958 -0.665304 -0.119660 -0.392497 0.385120 0.041338 -0.108185 0.328077 0.181136 -0.134958 0.504703 0.302459 -0.225817 -0.056568 0.348759 0.165629 -0.326612 -0.310659 -0.405807 0.115456 -0.144865 -0.379374 -0.052212 -0.125185 0.155254 -0.135452 0.189531 0.044046 -0.041641 0.555630 -0.129087 0.190864 -0.124031 -0.205513 0.128112 -0.351072 -0.187028 0.246478 0.071828 0.152563 -0.109865 0.249984 0.282265 -0.314118 -0.537253 0.186856 -0.009493 -0.104685 -0.153078 -0.149189 -0.019898 0.041062 -0.078545 -0.184929 -0.126048 0.153398 -0.074305 -0.430289 -0.012238 0.250790 -0.107158 0.068916 0.067224 0.132869 0.160771 -0.098969 0.332048 -0.290122 0.087478 0.359112 0.231031 -0.011740 -0.213724 -0.216600 0.197767 0.245461 0.090291 0.194018 0.354346 0.179342 0.246432 0.207604 -0.150405 0.422301 0.137898 -0.042298 0.078377 0.125362 0.137158 0.049491 -0.289237 -0.021856 -0.141476 -0.183922 -0.304231 -0.042248 -0.070048 0.120529 -0.585989 -0.325122 0.187746 0.275152 0.299878 -0.285706 0.037882 -0.085773 0.506847 -0.252231 -0.040802 -0.515915 -0.276180 -0.487628 0.527874 0.020994 -0.145927 0.100223 -0.063886 0.060575
40 -0.417266 -0.121835 -0.575669 -0.193943 -0.595957 -0.201265 0.328339 -0.185651 0.309171 -0.361344 0.208124 -0.289710 0.127207 0.176958 -0.465511 -0.144725 0.247589 -0.302271 -0.638441 0.336080 0.448325 0.049457 -0.595284 -0.000453 0.084975 0.660853 -0.004647 0.203302 0.220846 0.485912 0.006903 -0.164137 0.109736 0.631080 0.243469 -0.268260 -0.036639 -0.587217 -0.257124 0.212177 -0.038441 -0.152936 0.384065 -0.408194 -0.317897 0.219037 -0.007247 -0.632918 0.063177 -0.221743 -0.410818 0.210883 0.179677 0.523438 0.080110 0.017581 -0.061455 0.536630 -0.206308 0.219654 0.127815 -0.471161 -0.578673 0.185092 0.296886 0.261285 -0.204626 0.280946 0.387475 -0.541412 -0.368051 0.470148 0.306972 0.079504 -0.020828 -0.314922 -0.189469 -0.155316 0.654715 0.311244 -0.334272 -0.144787 0.167383 0.294674 -0.030917 -0.540686 -0.095924 -0.234179 0.047604 0.066472 0.035650 0.073058 -0.461459 -0.173957 0.043108 -0.851366 0.270804 0.056098 -0.546017 -0.090583 -0.009099 -0.298454 -0.297155 -0.505153 0.282350 -0.231958 -0.020203 0.297887 0.264254 -0.166486 -0.050223 0.010304 -0.312502 -0.131616 0.593882 0.460295 0.576904 0.426960 -0.600651 -0.140355 0.393203 0.224603 0.368342 0.190070 -0.219675 0.309368 0.489090 0.205914
46 0.459697 0.100166 0.477613 -0.304554 0.199465 0.320464 0.812036 -0.575193 0.171345 0.342868 0.367609 0.132333 0.545233 0.352048 -0.566270 -0.641902 -0.263413 0.097203 0.687076 -0.862123 0.183858 -0.046072 -0.547959 0.556380 0.640496 -0.848448 0.040122 0.215268 0.188714 0.301031 0.725066 1.042854 0.229088 0.288702 0.289558 -0.543410 -0.498284 -0.108022 0.806636 -0.213779 0.371361 -0.543108 -1.162447 0.499569 -1.070647 0.743904 -0.894250 -0.644803 -0.062699 -0.325353 0.480864 0.413637 -0.268712 0.061834 0.147647 0.386176 0.112708 0.717451 0.429153 -0.957531 0.772311 -0.113363 -0.215183 0.724138 -0.068832 0.387751 0.555411 1.028553 -0.276646 -0.291363 0.181040 -0.396537 0.205778 -0.866941 -0.599271 -0.247667 -0.490802 0.680717 -0.793303 -0.890428 -0.857452 0.324967 -0.209625 0.056941 -0.418560 -0.365898 -0.597352 -0.249772 0.248464 -0.146636 -0.056219 -0.319008 -0.088983 -0.310384 -1.150405 0.953477 1.302315 -1.126191 -0.713722 -0.180864 -0.149522 0.238147 0.752488 0.743950 -0.038122 0.059788 0.094544 -0.053758 -0.279944 0.465971 -0.447011 -0.568260 0.154675 0.256174 0.143779 0.153342 -0.757661 0.511085 -0.479577 -0.016935 0.167409 -0.108108 -0.582661 0.028368 -0.169154 -1.341650 0.402445 -0.088769
45 0.421729 0.148293 0.422387 -0.275142 0.194462 0.298560 0.602719 -0.518964 0.058409 0.333979 0.307856 0.190531 0.478331 0.302559 -0.456667 -0.594506 -0.219627 0.083607 0.643238 -0.838903 0.025812 -0.095033 -0.308254 0.470833 0.479345 -0.802546 -0.077235 0.147945 0.229620 0.309845 0.669975 0.980794 0.218285 0.240413 0.207151 -0.388516 -0.410401 -0.065739 0.707547 -0.361778 0.370004 -0.424614 -1.000382 0.468548 -0.917502 0.676935 -0.797654 -0.482045 -0.063285 -0.361024 0.382304 0.341147 -0.317942 0.049856 0.166563 0.199892 0.148595 0.494316 0.429518 -0.810754 0.646395 -0.075376 -0.160972 0.620625 -0.075274 0.246891 0.486852 0.914990 -0.215326 -0.162824 0.137323 -0.402797 0.066986 -0.726474 -0.527419 -0.192576 -0.434978 0.533993 -0.747158 -0.804379 -0.683729 0.243509 -0.062142 0.031138 -0.434670 -0.239734 -0.556757 -0.206788 0.177861 -0.147026 -0.169328 -0.332725 -0.002805 -0.204531 -1.019697 0.905316 1.039357 -0.895721 -0.647258 -0.176387 -0.063643 0.181677 0.566282 0.636057 -0.080771 0.122177 0.088135 -0.135321 -0.219994 0.352535 -0.434013 -0.500811 0.207859 0.272985 0.022724 0.024696 -0.739214 0.376968 -0.194990 0.048750 0.111750 -0.130271 -0.566575 0.062478 -0.104650 -1.143360 0.239280 -0.150891
48 0.357544 0.072005 0.370698 -0.354853 0.132376 0.323055 0.661274 -0.521734 0.177904 0.316237 0.389078 0.100167 0.554794 0.378010 -0.553867 -0.654205 -0.213926 0.027424 0.572393 -0.813207 0.114773 -0.066117 -0.482687 0.535349 0.573631 -0.725051 -0.004993 0.188693 0.240264 0.408935 0.695738 0.924137 0.252102 0.256201 0.287381 -0.551706 -0.458739 -0.107361 0.703654 -0.259005 0.353037 -0.504452 -1.074383 0.407744 -1.045071 0.752545 -0.931361 -0.584695 -0.088879 -0.427173 0.342262 0.393689 -0.306425 0.059473 0.123358 0.281672 0.089550 0.670500 0.427913 -0.877235 0.735138 -0.103795 -0.234301 0.714397 -0.035187 0.333417 0.491010 0.995336 -0.276083 -0.233248 0.090803 -0.358100 0.169404 -0.768528 -0.560651 -0.248754 -0.420767 0.602157 -0.737156 -0.801887 -0.762342 0.265692 -0.116337 0.083760 -0.460898 -0.336803 -0.670443 -0.270396 0.200993 -0.129733 -0.113729 -0.321594 -0.097455 -0.216023 -1.112132 0.852367 1.231905 -0.974905 -0.756907 -0.173348 -0.131355 0.211903 0.599698 0.637369 -0.083641 0.060618 0.088160 -0.094893 -0.208233 0.374094 -0.438382 -0.503244 0.231910 0.268100 0.085796 0.128966 -0.706769 0.496552 -0.381794 -0.038469 0.179829 -0.175000 -0.541451 0.061221 -0.183102 -1.259560 0.356347 -0.101763
44 0.465995 0.155347 0.407938 -0.290553 0.115121 0.298088 0.766687 -0.584412 0.130733 0.325787 0.355421 0.161576 0.498713 0.354443 -0.560121 -0.659152 -0.197834 0.068577 0.670034 -0.898732 0.098874 -0.082796 -0.448427 0.524884 0.616002 -0.827096 -0.047755 0.231663 0.257058 0.321450 0.705112 1.075503 0.262639 0.297289 0.219268 -0.474234 -0.465146 -0.113495 0.797644 -0.289438 0.382124 -0.477111 -1.154966 0.509069 -0.993827 0.781029 -0.907108 -0.615982 -0.046119 -0.396179 0.449903 0.429203 -0.283142 0.099776 0.210834 0.271668 0.128055 0.627061 0.436700 -0.835512 0.763007 -0.128655 -0.241440 0.708770 -0.097515 0.356495 0.529394 1.048346 -0.196269 -0.269522 0.115754 -0.431532 0.145714 -0.822535 -0.568325 -0.240480 -0.462300 0.596939 -0.765528 -0.858501 -0.837385 0.269176 -0.123062 0.037044 -0.410954 -0.339353 -0.586412 -0.253965 0.246124 -0.163871 -0.107033 -0.305865 -0.060516 -0.252505 -1.127347 0.941610 1.208915 -1.041612 -0.730091 -0.186629 -0.118875 0.177940 0.655518 0.693429 -0.032706 0.072478 0.136989 -0.082797 -0.220048 0.416032 -0.432250 -0.559944 0.135192 0.256532 0.132857 0.145722 -0.775161 0.453604 -0.323550 0.012918 0.214465 -0.170165 -0.525467 0.066410 -0.141843 -1.267762 0.361455 -0.122221
39 -0.464171 -0.145818 -0.586649 -0.195558 -0.565938 -0.220395 0.313391 -0.167888 0.305314 -0.386001 0.203365 -0.284186 0.117507 0.154962 -0.444655 -0.108572 0.240654 -0.303028 -0.691337 0.418880 0.458216 0.044062 -0.595354 -0.037300 0.026877 0.705795 0.034341 0.183454 0.208547 0.461858 -0.023259 -0.218024 0.079410 0.637946 0.250743 -0.232255 -0.016293 -0.595194 -0.304100 0.195607 -0.045212 -0.156389 0.490996 -0.436546 -0.310654 0.159932 0.082366 -0.633596 0.054250 -0.180592 -0.424386 0.158173 0.184159 0.541350 0.077083 0.015134 -0.049365 0.511886 -0.233188 0.247112 0.087814 -0.472892 -0.558480 0.148149 0.317785 0.228923 -0.241566 0.216893 0.396026 -0.540268 -0.347947 0.531734 0.305728 0.104858 -0.002421 -0.308411 -0.197506 -0.169971 0.713939 0.340101 -0.286580 -0.141160 0.166538 0.312354 -0.028382 -0.548681 -0.060049 -0.221770 0.010776 0.074253 0.026595 0.075686 -0.462893 -0.199233 0.110384 -0.936609 0.196324 0.099845 -0.495891 -0.094128 0.013782 -0.299362 -0.322335 -0.548824 0.300566 -0.234655 -0.045782 0.310803 0.283156 -0.169436 -0.053083 0.038379 -0.331988 -0.146044 0.591584 0.441828 0.633387 0.430311 -0.613044 -0.119444 0.359564 0.302127 0.357184 0.186755 -0.207846 0.385624 0.470428 0.224682
49 0.410859 0.125215 0.364235 -0.335745 0.075316 0.319638 0.636336 -0.517981 0.128180 0.320241 0.353724 0.118389 0.519611 0.354543 -0.531181 -0.662907 -0.194336 0.049813 0.619019 -0.883953 0.093355 -0.077845 -0.409100 0.514493 0.578863 -0.750728 -0.100270 0.182356 0.262237 0.433400 0.712421 0.992915 0.257280 0.306231 0.247203 -0.489384 -0.447018 -0.118893 0.719414 -0.294175 0.373440 -0.446224 -1.077078 0.442709 -1.011583 0.752251 -0.928940 -0.571146 -0.068924 -0.449083 0.348292 0.410848 -0.307573 0.089154 0.155845 0.211781 0.113989 0.607482 0.441762 -0.832433 0.714660 -0.128715 -0.247364 0.699763 -0.066578 0.326601 0.506103 1.003309 -0.207160 -0.216830 0.062022 -0.392318 0.127793 -0.754365 -0.546700 -0.254599 -0.423307 0.537619 -0.741309 -0.793584 -0.768365 0.245991 -0.055078 0.059406 -0.452024 -0.289739 -0.637426 -0.264452 0.241024 -0.132927 -0.143258 -0.314881 -0.080862 -0.171153 -1.109803 0.891630 1.187590 -0.939712 -0.757515 -0.176246 -0.114257 0.166114 0.570649 0.628220 -0.078767 0.075435 0.118076 -0.119950 -0.214893 0.348945 -0.439933 -0.517067 0.219263 0.263529 0.079929 0.114973 -0.729163 0.436963 -0.263739 -0.024194 0.188543 -0.231055 -0.494125 0.085242 -0.172291 -1.235123 0.334811 -0.132430
47 0.374524 0.112623 0.425787 -0.384435 0.214348 0.350535 0.569718 -0.524803 0.092816 0.363699 0.344603 0.146151 0.592686 0.352993 -0.510614 -0.673969 -0.256451 0.064531 0.638286 -0.907604 0.042975 -0.086526 -0.359752 0.536578 0.506276 -0.812772 -0.099856 0.120688 0.257559 0.461579 0.764489 0.996244 0.224846 0.287424 0.300806 -0.486116 -0.447426 -0.086229 0.710216 -0.417334 0.404116 -0.495177 -1.031654 0.437603 -1.110686 0.735727 -0.923225 -0.521518 -0.096503 -0.445751 0.311213 0.375286 -0.386714 0.044916 0.110785 0.201482 0.145353 0.586414 0.481198 -0.937837 0.701659 -0.081912 -0.189443 0.717675 -0.031091 0.254829 0.515996 0.970613 -0.262248 -0.138769 0.109557 -0.356591 0.078793 -0.754936 -0.590608 -0.247824 -0.474384 0.560353 -0.774988 -0.840341 -0.711065 0.260984 -0.025164 0.080849 -0.542088 -0.250743 -0.691936 -0.256443 0.190184 -0.127195 -0.229743 -0.402074 -0.055387 -0.176635 -1.137421 0.912385 1.174482 -0.917088 -0.775593 -0.203979 -0.068894 0.200368 0.542490 0.625413 -0.133119 0.150703 0.049888 -0.166636 -0.274310 0.326374 -0.522591 -0.527375 0.339394 0.322110 -0.022408 -0.010610 -0.750148 0.452155 -0.228812 0.007419 0.064132 -0.156368 -0.642673 0.092994 -0.159125 -1.262780 0.249499 -0.172797
35 0.290129 -0.213450 -0.141801 0.086247 -0.376919 -0.013798 -0.436446 0.719996 0.106859 0.000734 -0.518439 -0.653381 -0.155836 -0.409614 0.404007 0.059792 -0.070936 0.359138 0.171343 -0.131857 0.498584 0.294353 -0.176356 -0.099097 0.304579 0.187207 -0.405518 -0.335139 -0.408656 0.130568 -0.155099 -0.360606 -0.055133 -0.067108 0.133962 -0.070287 0.231156 0.001647 -0.068687 0.504020 -0.120894 0.230368 -0.042271 -0.211486 0.181217 -0.375855 -0.131892 0.250197 0.096900 0.160022 -0.158876 0.252970 0.303704 -0.269478 -0.519132 0.132527 0.019854 -0.171485 -0.165518 -0.097348 -0.058956 0.000068 -0.105054 -0.222412 -0.122736 0.124505 -0.111588 -0.450373 0.076384 0.262372 -0.119938 0.088591 0.015098 0.161535 0.192295 -0.104807 0.312973 -0.365037 0.151603 0.396168 0.247730 -0.035197 -0.151069 -0.230449 0.202038 0.260506 0.130025 0.197925 0.344569 0.171079 0.197766 0.207684 -0.150994 0.426527 0.188475 -0.102349 -0.020795 0.198341 0.144869 0.032449 -0.256927 -0.070418 -0.230398 -0.241053 -0.294404 -0.020987 -0.085682 0.111334 -0.589379 -0.376471 0.193947 0.284480 0.268030 -0.300678 0.042735 -0.110068 0.569259 -0.290667 0.042249 -0.487177 -0.292708 -0.450671 0.562067 0.055476 -0.118185 0.200111 -0.094557 0.055024
50 0.487147 0.160055 0.432034 -0.260892 0.135266 0.303072 0.667606 -0.516855 0.091150 0.335662 0.302637 0.152535 0.467121 0.299049 -0.475839 -0.605610 -0.221005 0.119889 0.704643 -0.899464 0.115039 -0.064734 -0.385915 0.496946 0.580130 -0.833197 -0.087016 0.179307 0.201201 0.316096 0.688375 1.033926 0.221300 0.284571 0.211372 -0.429081 -0.441901 -0.090110 0.756131 -0.274389 0.373594 -0.423250 -1.097602 0.504531 -0.944843 0.697463 -0.849746 -0.537180 -0.046199 -0.347380 0.442533 0.399098 -0.279504 0.062640 0.164496 0.259179 0.135115 0.568631 0.431844 -0.847461 0.698954 -0.107161 -0.198419 0.648809 -0.109735 0.322807 0.525757 0.954575 -0.200631 -0.207796 0.132365 -0.436462 0.103452 -0.781040 -0.544758 -0.221810 -0.435820 0.554911 -0.763603 -0.828819 -0.761956 0.269544 -0.114932 0.012696 -0.400878 -0.259581 -0.547192 -0.223771 0.256454 -0.144352 -0.104396 -0.303301 -0.040894 -0.216662 -1.066129 0.958883 1.126763 -0.981761 -0.660173 -0.166325 -0.116741 0.179952 0.636436 0.680237 -0.073590 0.097816 0.124155 -0.103837 -0.271384 0.380955 -0.418384 -0.525404 0.176853 0.248972 0.075820 0.085074 -0.744100 0.383952 -0.246314 0.008775 0.135472 -0.177494 -0.514548 0.058076 -0.130671 -1.214595 0.302282 -0.131433
3 0.864233 0.723153 0.389043 0.683269 0.122486 -0.458773 0.501950 -0.262919 -0.798689 -0.069088 -0.814248 0.405260 -0.501992 -0.816552 0.380541 0.283069 -0.157367 0.725852 0.884394 -0.545470 0.353683 -0.040767 0.385453 -0.416777 -0.068624 -0.906396 -0.621097 -0.102420 -0.179358 -0.702963 0.157578 1.255717 -0.324938 0.935441 -0.293295 1.166444 0.098231 -0.304964 0.450801 -0.522627 0.381408 0.346967 0.408645 0.673675 0.398577 -0.406379 1.165864 -0.272810 0.497377 0.869853 0.614206 -0.012154 0.295433 0.533031 0.513249 -0.074010 0.686625 -0.672675 -0.232721 0.161859 -0.250646 -0.314741 0.055715 -0.449256 -0.292567 -0.170022 0.226637 -0.086175 0.987129 -0.210026 0.472555 -0.214710 -0.480942 -0.293709 -0.020791 0.113877 -0.793604 -0.327072 0.164954 -0.319025 -0.341526 0.021280 0.123528 -0.372740 0.400775 0.170120 1.187530 0.412071 0.227548 -0.154974 -0.127570 -0.015012 0.343982 -0.577557 0.494462 0.329056 -0.956702 -0.227858 0.468970 -0.173138 0.388526 -0.432986 0.187072 0.136162 0.486155 0.335211 0.016817 0.148197 -0.481035 0.058663 -0.120496 -0.342827 -0.791863 -0.249411 0.450600 -0.368960 0.063514 -0.496997 0.571890 0.671194 -0.411397 0.963938 -0.014214 0.164695 0.521955 0.763470 -0.226401 -0.139146
41 -0.319724 -0.101272 -0.530854 -0.135335 -0.597296 -0.197129 0.386068 -0.175889 0.309728 -0.339081 0.166954 -0.272073 0.067588 0.151608 -0.428549 -0.130315 0.247069 -0.253968 -0.557704 0.303986 0.460094 0.062286 -0.599605 -0.007289 0.143062 0.586784 0.003910 0.214182 0.174063 0.378613 -0.017910 -0.113149 0.116998 0.584340 0.187418 -0.231366 -0.028169 -0.545690 -0.191391 0.249263 -0.045985 -0.126323 0.283745 -0.333021 -0.246169 0.208778 -0.010174 -0.612192 0.082082 -0.168672 -0.304262 0.224406 0.213665 0.492923 0.111032 0.051784 -0.060274 0.490094 -0.208139 0.243482 0.147424 -0.446340 -0.550842 0.162111 0.223714 0.278622 -0.182413 0.285479 0.375977 -0.540359 -0.318689 0.391546 0.304673 0.039195 -0.003547 -0.287172 -0.152253 -0.120504 0.591146 0.266464 -0.355596 -0.122410 0.093371 0.247199 0.028973 -0.531165 -0.038634 -0.199122 0.072901 0.045348 0.094097 0.113535 -0.410371 -0.187214 0.033790 -0.747858 0.261520 -0.014732 -0.469685 -0.066126 -0.032695 -0.267973 -0.208550 -0.409155 0.298513 -0.250396 0.032211 0.304706 0.263290 -0.109498 -0.002683 -0.003322 -0.376183 -0.158151 0.598323 0.489873 0.507733 0.378987 -0.573962 -0.136266 0.428327 0.177372 0.391617 0.163589 -0.188470 0.268519 0.493191 0.206231
52 -0.284338 -0.143113 -0.500187 -0.197346 -0.546745 -0.117688 0.016341 0.036196 0.221506 -0.264767 0.043962 -0.361608 0.112807 0.057763 -0.262721 -0.152359 0.189947 -0.184908 -0.472206 0.172056 0.353043 0.066301 -0.378316 -0.030158 0.070582 0.547400 -0.199958 0.033026 0.145552 0.540891 0.008981 -0.191336 0.093597 0.465647 0.234781 -0.192228 0.050613 -0.437191 -0.255427 0.116764 0.009532 -0.037142 0.301485 -0.378973 -0.257497 0.105910 -0.113402 -0.371118 0.050710 -0.244632 -0.431906 0.199163 0.095681 0.329500 -0.076343 -0.069150 -0.006015 0.297116 -0.152481 0.125572 0.070248 -0.344041 -0.462654 0.091955 0.217696 0.146427 -0.190069 0.114014 0.306764 -0.253803 -0.352495 0.365324 0.156167 0.134985 0.013034 -0.267349 -0.071310 -0.258984 0.494774 0.323582 -0.142077 -0.153840 0.213561 0.184316 -0.084211 -0.282857 -0.144006 -0.135169 0.092145 0.090332 -0.048166 0.031933 -0.347821 0.048076 0.035504 -0.636144 0.168673 0.175000 -0.456712 -0.087831 0.000591 -0.268509 -0.377773 -0.486520 0.083482 -0.137816 -0.046536 0.162623 0.077602 -0.277838 -0.053682 0.085614 -0.060330 -0.111703 0.349787 0.221335 0.522817 0.237183 -0.271822 -0.204711 0.194795 0.012690 0.352082 0.199541 -0.173394 0.277009 0.246645 0.104855
66 -0.187028 -0.130621 -0.042213 -0.378740 0.135154 0.172711 -0.744832 0.265476 -0.156996 0.088445 -0.119947 -0.193731 0.379979 -0.084508 0.124245 -0.171789 -0.172976 0.043291 -0.018396 -0.227324 -0.094939 -0.024663 0.266344 0.046615 -0.263345 0.026727 -0.406372 -0.412064 0.079583 0.733353 0.300449 -0.115447 -0.084985 0.148205 0.364079 -0.001442 0.080264 -0.035396 -0.253463 -0.545049 0.229367 -0.034700 0.388820 -0.255121 -0.601433 -0.104994 -0.191631 0.166600 -0.135695 -0.298498 -0.538358 -0.058100 -0.397834 -0.099155 -0.389282 -0.283347 0.166732 -0.120946 0.132571 -0.439591 -0.131706 0.036545 0.013488 0.059611 0.244842 -0.304989 -0.036868 -0.232900 -0.069274 0.424116 -0.136461 0.297498 -0.265665 0.161401 -0.127453 -0.156480 -0.134130 -0.308057 0.046607 0.086147 0.340809 -0.056086 0.435051 0.096708 -0.504616 0.317118 -0.421721 -0.006654 -0.021175 0.139692 -0.542351 -0.353347 -0.079164 0.354049 -0.112704 -0.143546 -0.026698 0.439644 -0.354723 -0.151880 0.178058 -0.079781 -0.523817 -0.376003 -0.431717 0.305195 -0.330253 -0.249672 -0.384537 -0.467917 -0.410215 0.125280 0.768168 0.191731 -0.438344 -0.623509 0.247019 -0.021696 0.398375 -0.096552 -0.618361 -0.026760 -0.305556 0.253167 -0.102359 0.033937 -0.402543 -0.189893
2 0.873702 0.708639 0.331715 0.671962 0.020726 -0.440764 0.503032 -0.229731 -0.747775 -0.067395 -0.797199 0.368299 -0.517302 -0.778261 0.367744 0.252752 -0.117401 0.704420 0.869544 -0.577809 0.356574 -0.026772 0.365776 -0.392967 -0.004853 -0.865498 -0.660073 -0.095033 -0.160680 -0.641138 0.154158 1.242769 -0.274172 0.923523 -0.287683 1.114399 0.099539 -0.311969 0.470116 -0.473984 0.372314 0.369639 0.319757 0.654576 0.410663 -0.353711 1.054715 -0.265208 0.487405 0.789087 0.599794 0.047057 0.306864 0.515236 0.503873 -0.091562 0.661121 -0.663355 -0.210640 0.190285 -0.203263 -0.318507 0.002449 -0.413959 -0.327091 -0.136501 0.217632 -0.044214 0.989115 -0.204871 0.415841 -0.248877 -0.461857 -0.297076 -0.021214 0.088672 -0.731363 -0.345302 0.150488 -0.307034 -0.359818 0.008862 0.130312 -0.378240 0.393706 0.160455 1.134027 0.392934 0.262167 -0.156007 -0.110271 0.014885 0.318148 -0.513490 0.453535 0.340713 -0.882688 -0.232764 0.425707 -0.176585 0.350414 -0.446827 0.171330 0.136171 0.456978 0.308556 0.049478 0.147128 -0.467178 0.035100 -0.086556 -0.332249 -0.778726 -0.258924 0.461905 -0.323045 0.060732 -0.494430 0.594131 0.606622 -0.350677 0.832823 0.051890 0.190539 0.486973 0.709731 -0.200882 -0.144628
61 -0.368582 -0.236628 -0.260701 -0.373411 -0.043820 0.065205 -0.849750 0.426116 -0.077510 -0.071237 -0.181134 -0.390826 0.316299 -0.164792 0.156114 -0.086880 -0.089121 -0.033700 -0.320021 0.068038 0.052651 0.053335 0.135286 -0.082791 -0.327629 0.388313 -0.411056 -0.436249 0.039404 0.796171 0.142502 -0.430955 -0.123889 0.239210 0.427039 -0.025469 0.198088 -0.177735 -0.517175 -0.370434 0.121426 0.017144 0.711094 -0.488166 -0.479017 -0.250674 -0.021361 0.153296 -0.087305 -0.235822 -0.747020 -0.083247 -0.278460 -0.012051 -0.491294 -0.271791 0.115638 -0.093342 -0.033322 -0.263033 -0.262798 -0.035733 -0.080479 -0.064417 0.364943 -0.301187 -0.222308 -0.432847 0.038415 0.373601 -0.235831 0.546677 -0.189155 0.368676 0.000286 -0.188843 -0.064929 -0.466977 0.377703 0.390416 0.472673 -0.158001 0.477333 0.152918 -0.422198 0.268314 -0.348430 0.004460 -0.050655 0.208291 -0.469323 -0.258339 -0.214854 0.381782 0.130846 -0.552849 -0.190362 0.676809 -0.314781 -0.132780 0.168920 -0.178202 -0.726244 -0.644091 -0.354763 0.202605 -0.396855 -0.133311 -0.342646 -0.616691 -0.324632 0.261324 0.713380 0.081227 -0.305515 -0.538816 0.586279 -0.020096 0.246595 -0.202623 -0.614408 0.062092 -0.073441 0.249056 -0.143892 0.393187 -0.372200 -0.092409
26 0.129120 -0.446985 0.667416 0.213096 0.864034 -0.046857 0.356086 0.338987 0.206295 0.083193 -0.246441 -0.297559 0.041485 -0.392774 0.296560 0.498348 -0.569304 0.445879 0.269300 0.574464 0.726031 0.358874 -0.755906 0.011351 0.123445 -0.195991 0.934458 -0.179645 -0.795163 -0.844526 -0.230689 -0.496004 -0.412916 -0.461547 0.309505 -0.244687 -0.092527 0.255338 -0.005819 0.821283 -0.281262 -0.413955 0.123708 0.020486 -0.036521 -0.686522 0.549620 0.065836 -0.057504 1.102331 0.463578 -0.256694 0.329957 -0.471044 -0.500657 1.088797 -0.117675 0.370755 -0.308820 -0.701447 -0.124440 0.356092 0.480614 -0.262451 0.100596 0.216972 0.066304 -0.712375 -0.625857 -0.107215 0.719582 0.344150 0.444174 -0.207114 -0.019124 0.104347 -0.097633 0.532910 0.023284 -0.028193 0.173753 0.423427 -0.980307 -0.053471 0.301166 -0.035980 0.402659 0.279189 -0.034570 0.205899 0.616609 0.128473 -0.104696 -0.514095 0.366973 -0.038463 0.164641 -0.466751 0.740245 0.076394 -0.304042 0.545628 0.774462 0.286359 -0.018358 -0.083610 -0.376650 0.413302 -0.654129 0.408614 0.090858 0.120214 0.027329 -0.198775 0.082364 -0.060986 0.441859 0.175071 -1.276782 -0.196198 -0.658127 0.719704 -0.266655 -0.444848 -0.067080 -0.048011 0.085679 0.356034
21 0.483609 0.108387 0.170058 0.335447 -0.329119 -0.082112 0.342136 0.147038 -0.043784 -0.125972 -0.322118 -0.225105 -0.284514 -0.358302 0.112786 0.153123 -0.051775 0.300896 0.414626 -0.077138 0.682726 0.186107 -0.431273 -0.048287 0.443862 -0.153631 -0.043515 0.040118 -0.301624 -0.269938 -0.043033 0.273139 -0.134908 0.217606 -0.048487 0.092005 -0.132997 -0.115299 0.105935 0.591648 -0.011074 0.087630 -0.153887 0.256007 0.211180 -0.255528 0.240563 -0.253087 0.211711 0.491669 0.469216 0.141156 0.341684 0.176591 0.010447 0.439394 -0.010995 0.167303 -0.216479 -0.003345 -0.001796 -0.172756 -0.090618 -0.184539 -0.172637 0.416304 0.135277 -0.097369 0.240135 -0.367378 0.035115 -0.123053 0.178948 -0.168619 0.004370 -0.113687 -0.047318 -0.094198 0.114986 0.070764 -0.260626 0.129829 -0.398587 -0.235603 0.407910 0.004477 0.438816 0.082521 0.456903 0.132890 0.421862 0.320404 -0.137675 -0.226693 0.155057 0.148931 0.064124 -0.263006 0.280076 0.113143 -0.262368 -0.050276 0.435025 0.147863 0.161781 -0.199665 0.142017 0.225188 -0.363290 0.151586 0.209984 0.037252 -0.410662 -0.341080 0.417167 0.268084 0.283149 -0.176137 -0.304499 -0.139279 0.032849 -0.024980 0.431926 -0.080307 -0.068737 0.071631 0.313257 0.192764
70 -0.255181 -0.163579 -0.094269 -0.410194 0.098844 0.179691 -0.827513 0.304600 -0.142535 0.076781 -0.108841 -0.237477 0.400267 -0.068206 0.126187 -0.180158 -0.155045 0.008521 -0.087000 -0.185294 -0.103273 -0.019858 0.263990 0.045905 -0.286256 0.114698 -0.413288 -0.430997 0.083594 0.803023 0.294014 -0.208223 -0.094537 0.151602 0.393798 -0.039093 0.096357 -0.052287 -0.321854 -0.538448 0.219573 -0.043693 0.451316 -0.316488 -0.629795 -0.123571 -0.205648 0.178840 -0.146753 -0.330101 -0.620917 -0.064706 -0.411511 -0.099834 -0.437616 -0.300624 0.151066 -0.103034 0.124457 -0.439544 -0.150084 0.027913 -0.001593 0.063354 0.280065 -0.305712 -0.076741 -0.275725 -0.077556 0.438805 -0.181298 0.350268 -0.261212 0.213282 -0.114689 -0.176981 -0.111010 -0.343996 0.094890 0.141504 0.390145 -0.072998 0.465094 0.118619 -0.523743 0.329235 -0.465489 -0.018482 -0.028030 0.168483 -0.560317 -0.356652 -0.113409 0.398020 -0.097221 -0.224742 -0.033710 0.518650 -0.385484 -0.148976 0.172993 -0.090878 -0.594419 -0.444855 -0.458877 0.296936 -0.362264 -0.256120 -0.374708 -0.522657 -0.417510 0.173294 0.823281 0.196943 -0.458971 -0.629546 0.310027 -0.008920 0.396678 -0.138783 -0.637046 -0.047182 -0.289173 0.267261 -0.137220 0.073869 -0.418508 -0.180164
27 0.005365 -0.469381 0.573004 0.100974 0.815017 0.003551 0.345074 0.242774 0.293238 0.091751 -0.070271 -0.258464 0.134296 -0.199306 0.153978 0.389963 -0.490061 0.289568 0.121820 0.577926 0.572268 0.303675 -0.720878 0.084995 0.095872 -0.104808 0.953670 -0.107390 -0.649796 -0.694279 -0.202807 -0.531752 -0.314227 -0.505284 0.310296 -0.367588 -0.111079 0.245062 -0.012062 0.740531 -0.285140 -0.452484 0.036515 -0.034085 -0.121411 -0.500890 0.353180 0.040839 -0.116769 0.860650 0.354889 -0.229367 0.239982 -0.468987 -0.459162 0.983218 -0.176213 0.439535 -0.231278 -0.662995 -0.043365 0.350000 0.421738 -0.143858 0.132744 0.198464 0.042366 -0.538903 -0.678274 -0.108966 0.617475 0.322527 0.455985 -0.206595 -0.044192 0.093857 -0.045208 0.584069 -0.030985 -0.065249 0.133687 0.386279 -0.887845 0.025348 0.188644 -0.118648 0.207001 0.185958 -0.107047 0.153224 0.549529 0.085192 -0.117650 -0.455863 0.222181 -0.056226 0.294441 -0.470820 0.570716 0.067283 -0.282503 0.546658 0.706522 0.282997 -0.029855 -0.102161 -0.335940 0.349068 -0.463677 0.412147 0.067842 0.089105 0.072449 -0.111962 0.036705 -0.002616 0.318206 0.269839 -1.255959 -0.208564 -0.505925 0.605522 -0.315104 -0.422552 -0.097505 -0.181492 0.119956 0.323764
28 0.039196 -0.480422 0.621966 0.138819 0.857275 -0.007940 0.370745 0.280369 0.281813 0.093902 -0.119086 -0.279492 0.112905 -0.264116 0.205001 0.435573 -0.530220 0.341135 0.170471 0.592077 0.639200 0.329045 -0.769029 0.067031 0.114615 -0.131612 0.994994 -0.133373 -0.711976 -0.773686 -0.225581 -0.550758 -0.352986 -0.534755 0.308925 -0.354101 -0.118451 0.270279 -0.012677 0.805712 -0.299902 -0.462846 0.047974 -0.020660 -0.095212 -0.572683 0.418566 0.055721 -0.112701 0.956329 0.412025 -0.249782 0.278199 -0.493936 -0.487322 1.055152 -0.175037 0.446573 -0.262910 -0.695907 -0.068223 0.369435 0.453108 -0.178505 0.129660 0.213199 0.059235 -0.609193 -0.697428 -0.108943 0.668414 0.337286 0.480735 -0.211741 -0.031082 0.104902 -0.054899 0.590200 -0.024132 -0.055785 0.149387 0.417566 -0.954551 0.005534 0.231485 -0.099275 0.262103 0.216011 -0.088416 0.182020 0.593776 0.109060 -0.116189 -0.487524 0.265674 -0.047022 0.275930 -0.484719 0.649168 0.077231 -0.301933 0.579700 0.757928 0.295444 -0.034043 -0.102679 -0.353817 0.384534 -0.530853 0.431121 0.085093 0.100754 0.061932 -0.141712 0.047192 -0.010195 0.357754 0.246628 -1.308576 -0.220321 -0.554041 0.642168 -0.311009 -0.451585 -0.098182 -0.162989 0.116492 0.350852
57 -0.402278 -0.079578 -0.616277 -0.143965 -0.643800 -0.276014 0.323133 -0.161972 0.228145 -0.426318 0.095319 -0.298077 0.068500 0.058708 -0.407663 -0.092221 0.259043 -0.242882 -0.654423 0.380204 0.540512 0.056263 -0.586344 -0.090277 0.033671 0.689644 -0.090004 0.159763 0.193969 0.471196 -0.005536 -0.128097 0.054108 0.785828 0.248899 -0.116437 0.006144 -0.667993 -0.314149 0.148551 -0.006133 -0.101354 0.586662 -0.421921 -0.262140 0.112963 0.196641 -0.674678 0.122601 -0.112825 -0.429663 0.186843 0.225840 0.635684 0.119989 -0.020440 0.005672 0.460175 -0.286035 0.305666 0.041434 -0.535119 -0.599322 0.100438 0.307553 0.234781 -0.252373 0.187361 0.543022 -0.585497 -0.357129 0.547648 0.261334 0.128623 0.003919 -0.339421 -0.267251 -0.262673 0.802506 0.372013 -0.304835 -0.166608 0.222632 0.287056 0.014529 -0.538166 0.046955 -0.182215 0.060693 0.084817 0.003844 0.089821 -0.466062 -0.220778 0.188629 -0.982506 0.082394 0.146699 -0.493470 -0.104184 0.052992 -0.386521 -0.372315 -0.606487 0.345605 -0.223556 -0.047483 0.329429 0.242605 -0.233097 -0.059273 0.040896 -0.406097 -0.193941 0.665832 0.424050 0.717227 0.373251 -0.551165 -0.080261 0.328227 0.362946 0.417097 0.241769 -0.185197 0.521201 0.462709 0.226573
42 -0.426404 -0.181730 -0.511574 -0.211659 -0.491151 -0.142456 0.203835 -0.087505 0.313764 -0.310197 0.199220 -0.310058 0.150842 0.159023 -0.384595 -0.110814 0.191665 -0.277176 -0.610727 0.361580 0.406932 0.063937 -0.559678 0.010937 0.063031 0.644588 0.041557 0.140411 0.156552 0.469826 -0.008284 -0.272590 0.078989 0.488611 0.251791 -0.299493 -0.032413 -0.481722 -0.285507 0.235738 -0.059594 -0.158216 0.364082 -0.403048 -0.313056 0.147221 -0.025899 -0.516706 0.026408 -0.192237 -0.397507 0.156350 0.143215 0.408487 -0.005044 0.051793 -0.091542 0.508268 -0.185335 0.149156 0.093419 -0.375456 -0.472072 0.158213 0.287435 0.237418 -0.201625 0.167352 0.257391 -0.445370 -0.324903 0.453743 0.302471 0.105555 -0.012692 -0.293123 -0.116249 -0.123052 0.579016 0.314994 -0.221880 -0.106070 0.110476 0.280590 -0.048258 -0.458845 -0.134608 -0.210052 0.035180 0.093511 0.052312 0.070243 -0.429960 -0.110897 0.044552 -0.788582 0.264664 0.082787 -0.455136 -0.055901 -0.045780 -0.217223 -0.262179 -0.463747 0.201228 -0.227920 -0.051414 0.254263 0.211940 -0.159817 -0.045266 0.058394 -0.193984 -0.114833 0.469054 0.394185 0.550133 0.386627 -0.579307 -0.179964 0.290552 0.164593 0.316648 0.141562 -0.226714 0.245515 0.421353 0.209607
30 0.190643 -0.454012 0.699970 0.207775 0.871096 -0.018749 0.316180 0.372693 0.216189 0.119786 -0.258010 -0.317291 0.051244 -0.393137 0.311171 0.471754 -0.589607 0.465998 0.340551 0.496068 0.706244 0.365685 -0.725963 0.037457 0.160432 -0.254047 0.902513 -0.195699 -0.800719 -0.829909 -0.213795 -0.469455 -0.393367 -0.514692 0.310596 -0.260227 -0.092842 0.297254 0.035196 0.820903 -0.269017 -0.404568 0.023532 0.045468 -0.049731 -0.673012 0.471897 0.095037 -0.072276 1.073484 0.485070 -0.236803 0.312899 -0.539668 -0.539100 1.095421 -0.119964 0.354211 -0.277623 -0.760567 -0.100304 0.384024 0.496977 -0.250384 0.069961 0.215470 0.092602 -0.698098 -0.663228 -0.060445 0.720106 0.288439 0.420394 -0.240685 -0.021980 0.114655 -0.068442 0.541700 -0.054489 -0.063045 0.169998 0.445210 -0.991166 -0.086814 0.285521 0.011340 0.372507 0.292688 -0.004616 0.186673 0.612749 0.114013 -0.086690 -0.469256 0.309873 0.050889 0.222878 -0.508835 0.740623 0.065874 -0.318252 0.567689 0.791218 0.334921 -0.071023 -0.056703 -0.374025 0.385304 -0.702424 0.401532 0.084999 0.114458 0.079940 -0.188026 0.038933 -0.103668 0.393302 0.151473 -1.229820 -0.225486 -0.680525 0.642813 -0.285393 -0.444623 -0.071055 -0.134011 0.052023 0.334157
22 0.095370 -0.367020 0.559118 0.165834 0.718980 -0.002464 0.357138 0.217227 0.224804 0.096582 -0.102993 -0.189670 0.047093 -0.221915 0.184323 0.374638 -0.435604 0.306095 0.219018 0.459759 0.511401 0.275390 -0.618881 0.062095 0.139991 -0.179773 0.844061 -0.083346 -0.610094 -0.736853 -0.204160 -0.400100 -0.290136 -0.480646 0.203734 -0.274780 -0.108465 0.261135 0.056779 0.705029 -0.256394 -0.365220 -0.058548 0.056105 -0.017470 -0.467984 0.336293 0.056557 -0.076419 0.830551 0.432867 -0.201252 0.256429 -0.431670 -0.373645 0.905929 -0.147135 0.349239 -0.202846 -0.567537 -0.035685 0.326483 0.403288 -0.158476 0.046389 0.203713 0.082239 -0.482174 -0.588714 -0.097505 0.583912 0.199339 0.393932 -0.219502 -0.016241 0.110997 -0.025030 0.524417 -0.083550 -0.092669 0.093161 0.367029 -0.847947 -0.040569 0.243593 -0.062595 0.262267 0.192980 -0.045521 0.132004 0.538744 0.114840 -0.057322 -0.422128 0.211692 0.060614 0.239592 -0.466557 0.593923 0.085482 -0.276815 0.495326 0.703709 0.331211 -0.012945 -0.092644 -0.254514 0.314195 -0.440045 0.410951 0.106019 0.063996 -0.001553 -0.132263 0.043317 0.019784 0.223460 0.179676 -1.068265 -0.167624 -0.421206 0.501932 -0.244120 -0.397543 -0.054368 -0.182770 0.109935 0.284735
29 0.156330 -0.370035 0.618271 0.230536 0.795174 -0.052395 0.341294 0.278452 0.169566 0.085166 -0.225989 -0.216625 0.010378 -0.344273 0.276278 0.456656 -0.498908 0.402979 0.273515 0.491291 0.601646 0.309669 -0.611581 0.004786 0.102978 -0.221554 0.834437 -0.139546 -0.707855 -0.823523 -0.216398 -0.392395 -0.365459 -0.440993 0.228871 -0.179076 -0.077843 0.252529 0.043344 0.712351 -0.249990 -0.342800 0.064186 0.063093 0.023303 -0.597491 0.508930 0.074263 -0.048760 0.993622 0.458652 -0.237143 0.302306 -0.444264 -0.418772 0.959006 -0.094934 0.290718 -0.270584 -0.603033 -0.111292 0.334337 0.455238 -0.245473 0.054645 0.175331 0.070542 -0.614715 -0.550219 -0.085524 0.669258 0.248993 0.370334 -0.203918 -0.005974 0.129176 -0.082777 0.487102 -0.026710 -0.067657 0.137803 0.387264 -0.885959 -0.073184 0.287005 -0.027599 0.396402 0.262579 -0.044974 0.145167 0.556842 0.115685 -0.051521 -0.473777 0.328768 0.027044 0.115489 -0.454918 0.695742 0.066782 -0.251841 0.490766 0.718393 0.297609 0.001507 -0.058697 -0.311614 0.360913 -0.560062 0.396056 0.102089 0.081991 -0.012623 -0.174345 0.062318 -0.065269 0.333096 0.123764 -1.096697 -0.141458 -0.565764 0.637132 -0.254494 -0.405270 -0.025718 -0.058966 0.052734 0.303133
23 0.415139 0.168275 0.186946 0.096865 -0.115553 -0.025947 0.625214 -0.300343 0.055067 0.047827 0.080566 0.066428 0.012909 0.032368 -0.258303 -0.143443 -0.040612 0.135567 0.380630 -0.377997 0.284042 0.025417 -0.292247 0.153102 0.414482 -0.387202 -0.019838 0.262668 0.026535 -0.023583 0.229449 0.653398 0.095100 0.358451 -0.037315 -0.088994 -0.226554 -0.185210 0.409779 0.125758 0.146894 -0.085169 -0.512878 0.381718 -0.252075 0.295069 -0.200590 -0.457426 0.102097 0.022362 0.443681 0.206842 0.061128 0.207876 0.238152 0.251797 0.061955 0.345443 0.084284 -0.228041 0.320175 -0.221591 -0.166450 0.231852 -0.121297 0.290220 0.284714 0.482303 0.105599 -0.336696 0.079788 -0.264068 0.111055 -0.452886 -0.213535 -0.095801 -0.270326 0.229191 -0.221370 -0.402907 -0.578698 0.143571 -0.167110 -0.050539 0.046902 -0.212911 0.051119 -0.092546 0.286886 -0.107431 0.203167 0.009318 -0.094780 -0.303774 -0.382178 0.417827 0.525163 -0.680765 -0.187726 -0.086912 -0.127926 -0.011797 0.524051 0.401660 0.182291 -0.040919 0.177915 0.133626 -0.171525 0.309210 -0.101175 -0.361492 -0.333061 -0.030349 0.372956 0.227695 -0.251490 0.135133 -0.276781 0.049735 0.165203 0.069334 -0.025923 -0.012568 -0.050060 -0.454189 0.344680 0.023234
73 -0.320008 -0.184443 -0.163237 -0.423222 0.062328 0.142683 -0.837470 0.317563 -0.118748 0.028183 -0.123210 -0.282351 0.405859 -0.090077 0.119761 -0.146798 -0.141446 -0.009716 -0.178003 -0.104396 -0.048832 -0.002037 0.224399 0.013122 -0.318524 0.213554 -0.416598 -0.440492 0.078960 0.847212 0.271385 -0.281612 -0.110194 0.215090 0.423667 -0.033569 0.118573 -0.107324 -0.400758 -0.518893 0.207706 -0.032490 0.583601 -0.397004 -0.629334 -0.170364 -0.138080 0.145500 -0.142214 -0.317488 -0.693494 -0.072669 -0.374810 -0.060916 -0.453357 -0.312369 0.143729 -0.082711 0.081426 -0.391128 -0.185934 -0.014401 -0.040423 0.034777 0.323521 -0.307050 -0.121092 -0.326270 -0.034634 0.404129 -0.210729 0.434370 -0.243512 0.267694 -0.093786 -0.199824 -0.121730 -0.394346 0.212846 0.216944 0.418745 -0.104204 0.492247 0.148807 -0.517960 0.293372 -0.437995 -0.018492 -0.035203 0.183970 -0.561576 -0.341561 -0.163233 0.391827 -0.020871 -0.378268 -0.074082 0.579679 -0.394753 -0.154205 0.185060 -0.127436 -0.659269 -0.537355 -0.434211 0.283340 -0.383963 -0.216387 -0.361756 -0.566456 -0.417571 0.195806 0.794384 0.164784 -0.412062 -0.616071 0.424860 0.004656 0.342476 -0.140714 -0.641119 0.008568 -0.240633 0.289582 -0.148360 0.178266 -0.394907 -0.154257
71 -0.470029 -0.033090 -0.100749 -0.294814 0.217473 0.014215 -0.979156 0.385968 -0.350742 0.018802 -0.309976 -0.243947 0.256362 -0.313328 0.468477 0.077939 -0.258496 0.072879 -0.170347 0.033445 0.061554 0.052280 0.305800 -0.153512 -0.550338 0.222294 -0.376508 -0.511943 -0.086173 0.555381 0.247615 -0.437462 -0.412343 0.495296 0.374476 0.162864 0.087275 -0.217984 -0.559494 -0.474373 0.065748 0.061830 1.205193 -0.468646 -0.477077 -0.512723 0.474746 0.263367 -0.023535 0.085733 -0.749237 -0.248066 -0.261198 0.172774 -0.368135 -0.377285 0.138135 -0.132702 -0.006953 -0.176186 -0.544904 -0.055138 0.060275 -0.100699 0.420573 -0.432776 -0.176700 -0.610051 0.075079 0.379546 -0.108849 0.675862 -0.223188 0.498390 0.050749 -0.170424 -0.179049 -0.477489 0.448575 0.399547 0.649041 -0.179171 0.554195 0.253937 -0.318403 0.342343 -0.124125 0.089136 -0.060009 0.366431 -0.509018 -0.257628 -0.247247 0.292193 0.344701 -0.660593 -0.674542 0.886692 -0.085660 -0.020617 0.182552 -0.157173 -0.732846 -0.628179 -0.180087 0.280493 -0.437044 -0.159187 -0.462786 -0.704682 -0.464177 0.206975 0.728438 0.062607 -0.322217 -0.667653 0.627739 -0.164866 0.312960 0.037134 -0.904552 0.375938 -0.227314 0.200026 -0.181609 0.584739 -0.368758 -0.053069
58 0.224767 -0.171335 -0.036917 0.079470 -0.204888 0.001125 -0.260005 0.522391 0.087269 0.003153 -0.376387 -0.474534 -0.101909 -0.321021 0.296762 0.072070 -0.094806 0.278486 0.160699 -0.069949 0.405993 0.233239 -0.186548 -0.063084 0.242593 0.095897 -0.214670 -0.239920 -0.331500 0.031996 -0.115017 -0.261866 -0.071172 -0.078934 0.119387 -0.065312 0.133822 0.029131 -0.045540 0.415079 -0.089150 0.134626 -0.037915 -0.130199 0.114068 -0.303686 -0.053722 0.163663 0.063158 0.186517 -0.047730 0.160052 0.230361 -0.219810 -0.394892 0.180890 0.006868 -0.077032 -0.139733 -0.120415 -0.040103 0.024751 -0.033634 -0.170530 -0.084021 0.114642 -0.059815 -0.352691 0.009078 0.158366 -0.040664 0.072155 0.047533 0.090886 0.121127 -0.069002 0.202434 -0.211631 0.091952 0.258808 0.172379 0.015373 -0.179455 -0.168735 0.164519 0.181526 0.123102 0.160301 0.254728 0.138644 0.190468 0.155550 -0.105346 0.259951 0.143432 -0.045714 0.013512 0.086078 0.149796 0.035112 -0.208817 -0.010738 -0.077040 -0.130003 -0.207553 -0.030776 -0.069092 0.110648 -0.462487 -0.212894 0.142853 0.195984 0.187258 -0.225770 0.041869 -0.076375 0.402620 -0.192554 -0.062841 -0.353623 -0.241151 -0.280347 0.368754 0.007936 -0.089349 0.115145 -0.049160 0.065026
31 0.142301 -0.017904 0.044479 0.063791 -0.073043 -0.020501 0.127329 0.052410 0.044167 -0.025146 -0.089481 -0.131257 -0.029941 -0.102997 0.015354 0.016708 -0.050225 0.101201 0.111862 -0.038567 0.247125 0.076124 -0.195298 0.010160 0.156738 -0.040560 0.017489 0.000133 -0.110535 -0.052125 0.001719 0.058343 -0.033811 0.074363 0.035326 -0.038484 -0.040798 -0.052095 0.068744 0.206634 -0.008430 -0.013909 -0.086204 0.036797 -0.023201 -0.063029 0.010978 -0.102449 0.045489 0.132435 0.112995 0.068497 0.114479 0.020226 -0.056244 0.170871 0.008230 0.106662 -0.064449 -0.080071 0.046628 -0.054108 -0.048768 -0.019399 -0.039627 0.131272 0.053195 -0.015292 0.034581 -0.099625 0.026868 -0.002108 0.087279 -0.086374 -0.010396 -0.052894 -0.031734 0.009344 0.024381 0.002342 -0.109177 0.057332 -0.144766 -0.051637 0.098397 -0.036579 0.095876 0.029310 0.129628 0.036148 0.140399 0.067667 -0.061923 -0.061629 0.004885 0.031316 0.111056 -0.136964 0.033983 0.013269 -0.092652 0.000970 0.135167 0.045653 0.022130 -0.048166 0.015523 0.100255 -0.153819 0.042061 0.036922 -0.003279 -0.075174 -0.096586 0.141108 0.073233 0.100483 0.003537 -0.173305 -0.079982 -0.017476 0.007577 0.111094 -0.019227 -0.039903 -0.034768 0.108434 0.057788
72 -0.568723 -0.096639 -0.221146 -0.406226 0.103291 0.009334 -1.060641 0.433888 -0.295537 -0.023366 -0.314229 -0.364856 0.348337 -0.298095 0.411979 0.021966 -0.248097 0.033951 -0.279965 0.047290 0.176820 0.072934 0.188377 -0.123927 -0.549653 0.367965 -0.467626 -0.534967 -0.053493 0.795657 0.308337 -0.524131 -0.413552 0.641732 0.502822 0.074837 0.081425 -0.339829 -0.654237 -0.480863 0.090452 0.034387 1.334764 -0.590651 -0.648331 -0.495990 0.415351 0.175814 -0.022840 -0.024321 -0.934172 -0.210423 -0.288738 0.253494 -0.425774 -0.427605 0.134275 -0.020098 -0.021884 -0.217948 -0.547116 -0.145790 -0.042348 -0.042188 0.506378 -0.410946 -0.230192 -0.602270 0.119889 0.337488 -0.223766 0.824567 -0.189904 0.537607 0.035433 -0.276325 -0.210909 -0.568597 0.594584 0.493609 0.651675 -0.204456 0.633825 0.323652 -0.394821 0.273760 -0.247174 0.048822 -0.019408 0.426778 -0.566580 -0.278610 -0.381389 0.354542 0.311708 -0.873606 -0.606202 0.971165 -0.269969 -0.049674 0.176888 -0.222205 -0.865061 -0.798009 -0.210246 0.271215 -0.478513 -0.134769 -0.482732 -0.818950 -0.538985 0.236745 0.818692 0.044414 -0.272817 -0.659299 0.798973 -0.079424 0.250218 -0.045549 -0.918292 0.346331 -0.166741 0.284740 -0.269838 0.622445 -0.325879 -0.049657
53 -0.196713 -0.178545 -0.418898 -0.058858 -0.505886 -0.185135 0.216785 0.066935 0.290829 -0.287327 -0.005866 -0.401042 0.010939 -0.025193 -0.216330 -0.037723 0.151269 -0.092882 -0.423105 0.294491 0.535289 0.138688 -0.565968 -0.056481 0.173375 0.534236 -0.020136 0.077278 -0.010634 0.270021 -0.098379 -0.245478 0.041363 0.398736 0.207425 -0.200943 0.035133 -0.413624 -0.205295 0.391605 -0.094566 -0.057582 0.259021 -0.335151 -0.099511 0.008982 0.041972 -0.408062 0.082051 -0.005548 -0.264212 0.192356 0.277339 0.303935 -0.083555 0.136628 -0.050611 0.363560 -0.253273 0.148851 0.070717 -0.325296 -0.415338 0.016247 0.171082 0.258956 -0.187593 0.040169 0.289135 -0.372675 -0.243554 0.369849 0.276879 0.083409 0.054684 -0.238045 -0.050591 -0.167627 0.541413 0.343666 -0.186296 -0.094398 -0.020664 0.141316 0.104793 -0.357314 0.039690 -0.080735 0.119589 0.097152 0.176615 0.160188 -0.370871 -0.075984 0.139076 -0.666055 0.177626 0.036448 -0.264994 -0.036128 -0.103363 -0.201382 -0.185148 -0.398757 0.177056 -0.219122 -0.028686 0.305667 0.035870 -0.159943 0.071388 0.093847 -0.236992 -0.224090 0.496874 0.350073 0.594509 0.245106 -0.539823 -0.237772 0.219672 0.109543 0.447349 0.102096 -0.165952 0.312462 0.355010 0.212767
32 0.503483 0.094416 0.218874 0.349658 -0.280254 -0.083376 0.397818 0.154505 -0.036604 -0.124641 -0.319804 -0.225596 -0.299553 -0.377689 0.115125 0.164510 -0.072439 0.317898 0.454887 -0.061258 0.704645 0.184121 -0.489243 -0.051723 0.471839 -0.181055 0.013443 0.033535 -0.346563 -0.323391 -0.039733 0.276017 -0.135469 0.165643 -0.050490 0.091731 -0.156365 -0.076988 0.130100 0.625851 -0.032565 0.060199 -0.182029 0.286788 0.237085 -0.268163 0.256219 -0.255997 0.220224 0.537392 0.524893 0.111901 0.358749 0.154731 0.032199 0.482146 -0.026047 0.180499 -0.231125 -0.006397 0.002437 -0.144308 -0.063019 -0.187593 -0.187874 0.444437 0.158598 -0.107749 0.186586 -0.382889 0.086148 -0.153544 0.201701 -0.186049 -0.002353 -0.083113 -0.046972 -0.040029 0.068726 0.048259 -0.261932 0.173302 -0.451307 -0.242593 0.440446 0.000400 0.459311 0.090999 0.446752 0.127649 0.472323 0.331809 -0.119683 -0.264944 0.145656 0.189188 0.093342 -0.310931 0.325043 0.123843 -0.292240 0.008824 0.505175 0.193081 0.174202 -0.209358 0.160319 0.237069 -0.363791 0.207113 0.224893 0.031711 -0.426087 -0.339445 0.417989 0.289457 0.238465 -0.166962 -0.352331 -0.141492 0.028406 -0.011292 0.406314 -0.111876 -0.072470 0.041232 0.319107 0.203277
43 0.146991 -0.009604 -0.038784 -0.018329 -0.210896 0.009812 0.089785 0.048224 0.067086 -0.021864 -0.066077 -0.189699 0.043902 -0.074109 -0.046755 -0.096572 -0.021305 0.082661 0.111384 -0.160130 0.277238 0.074943 -0.217972 0.055625 0.230259 -0.010244 -0.129531 -0.001038 -0.042899 0.161974 0.097933 0.128827 0.014549 0.197454 0.093113 -0.098658 -0.054385 -0.135042 0.090242 0.144963 0.060578 -0.012715 -0.133604 0.002150 -0.170417 0.031326 -0.135466 -0.181096 0.054131 -0.017196 0.025754 0.165228 0.080994 0.076776 -0.075693 0.093551 0.042203 0.163478 -0.021104 -0.125473 0.120504 -0.136882 -0.164290 0.066053 -0.028365 0.153559 0.058907 0.089695 0.100614 -0.102568 -0.072105 -0.000243 0.079116 -0.108114 -0.050997 -0.137962 -0.057111 -0.044877 0.022309 -0.002573 -0.169732 0.021548 -0.042092 -0.025952 0.023007 -0.054912 -0.013647 -0.016501 0.198596 0.047104 0.064097 0.038443 -0.125951 0.017317 -0.106479 0.019061 0.222566 -0.129923 -0.150220 -0.019661 -0.102641 -0.070968 0.047985 -0.003923 -0.022410 -0.041081 0.028412 0.077443 -0.178445 -0.041702 -0.020045 -0.021732 -0.012152 -0.086754 0.163741 0.084353 0.118205 0.037559 -0.114237 -0.131597 0.024968 -0.106978 0.149696 0.063174 -0.083361 -0.097188 0.136355 0.029402
63 -0.379569 -0.156177 -0.128075 -0.418122 0.143751 0.117399 -0.867600 0.369008 -0.143318 0.068517 -0.229707 -0.323465 0.422620 -0.197268 0.225560 -0.103383 -0.194727 0.067776 -0.191680 -0.079948 0.012439 0.024124 0.222172 -0.020884 -0.328552 0.230677 -0.484379 -0.472794 0.042157 0.864576 0.304232 -0.326039 -0.174097 0.303767 0.491499 0.008284 0.123201 -0.114262 -0.422834 -0.570946 0.211572 0.000729 0.752474 -0.444527 -0.578220 -0.281556 0.049396 0.176227 -0.098809 -0.199827 -0.756783 -0.103892 -0.341673 -0.038608 -0.448927 -0.345076 0.116578 -0.105300 0.038726 -0.377649 -0.249371 0.012848 -0.016688 -0.012049 0.343538 -0.306158 -0.194761 -0.447091 -0.006645 0.398945 -0.162598 0.486158 -0.278748 0.347443 -0.107820 -0.233670 -0.143646 -0.395867 0.264740 0.291619 0.520633 -0.153061 0.536315 0.193636 -0.500008 0.297052 -0.367313 0.024560 -0.044912 0.219026 -0.587093 -0.306234 -0.215076 0.402577 0.103497 -0.503765 -0.219388 0.685391 -0.373862 -0.140963 0.209746 -0.181867 -0.677434 -0.556140 -0.376407 0.275632 -0.431707 -0.232279 -0.401766 -0.659299 -0.485558 0.187345 0.802501 0.150882 -0.395782 -0.673431 0.497016 -0.006537 0.316017 -0.091143 -0.755394 0.106511 -0.294178 0.328713 -0.170955 0.298802 -0.432686 -0.101471
12 0.287475 0.094331 0.260883 -0.022108 0.108885 0.083778 0.470400 -0.279307 0.049759 0.126667 0.110866 0.092792 0.144613 0.093522 -0.214486 -0.194530 -0.130310 0.096494 0.364205 -0.351271 0.134706 -0.003638 -0.249619 0.202228 0.295464 -0.428309 0.073644 0.130120 0.033120 -0.042337 0.260285 0.513979 0.071154 0.139769 0.059432 -0.153156 -0.217169 -0.045976 0.391571 -0.015459 0.142589 -0.199096 -0.503887 0.294620 -0.353312 0.264235 -0.255933 -0.299812 0.018774 0.001953 0.336027 0.152866 -0.039326 0.049203 0.128897 0.238346 0.064121 0.291697 0.143561 -0.365709 0.308533 -0.057756 -0.062035 0.256080 -0.072692 0.193756 0.261743 0.416577 -0.077189 -0.189047 0.150422 -0.202351 0.093788 -0.416511 -0.237690 -0.066270 -0.247035 0.319105 -0.326390 -0.410377 -0.421905 0.170198 -0.175837 -0.019239 -0.082630 -0.170121 -0.100078 -0.063526 0.128664 -0.077020 0.069033 -0.088873 -0.008984 -0.238312 -0.415594 0.453598 0.498044 -0.560214 -0.185849 -0.068742 -0.070491 0.101749 0.433758 0.387981 0.059148 0.013037 0.069520 0.036301 -0.136022 0.274940 -0.147317 -0.281169 -0.077282 0.066965 0.137112 0.094441 -0.332074 0.174743 -0.252312 0.042124 0.075464 0.053770 -0.227299 -0.028220 -0.027773 -0.527758 0.205468 -0.012750
55 0.081446 -0.193035 -0.105735 0.056110 -0.190092 -0.101483 0.067903 0.277074 0.196108 -0.090140 -0.207171 -0.400369 -0.065536 -0.166584 0.039298 0.057331 -0.012962 0.172990 -0.039530 0.138869 0.470218 0.189106 -0.413166 -0.034845 0.240223 0.214542 -0.007244 -0.076709 -0.253974 -0.025313 -0.099925 -0.241571 -0.045727 0.063189 0.140043 -0.135557 0.084146 -0.131322 -0.037016 0.438532 -0.111047 -0.034462 0.028194 -0.155284 0.032075 -0.183862 -0.002654 -0.114500 0.048636 0.209125 -0.044282 0.150588 0.283851 -0.036318 -0.251064 0.251864 -0.035029 0.133406 -0.191150 -0.077173 0.030401 -0.086034 -0.162670 -0.090251 0.000506 0.221327 -0.070444 -0.171941 0.057741 -0.089784 -0.000490 0.168021 0.183671 -0.007207 0.054013 -0.115722 0.083751 -0.076722 0.208895 0.222241 -0.013195 0.013243 -0.251312 -0.051561 0.174938 -0.093529 0.120945 0.058722 0.150524 0.092755 0.236771 0.147275 -0.199754 0.027865 0.117325 -0.262594 0.139644 -0.075791 0.023125 -0.001811 -0.187647 -0.009186 -0.002506 -0.159511 -0.006865 -0.111089 -0.065425 0.223065 -0.272933 -0.069467 0.135137 0.121978 -0.047279 -0.210230 0.241782 0.160153 0.443148 0.056450 -0.402229 -0.270840 -0.026033 -0.023650 0.345318 0.006721 -0.102567 0.142678 0.142691 0.166844
51 0.500514 0.151466 0.247356 0.075344 -0.085520 0.003326 0.664110 -0.273760 0.072805 0.078178 0.045147 -0.009651 0.077402 -0.006541 -0.247079 -0.174850 -0.111155 0.224604 0.498747 -0.472253 0.384528 0.051777 -0.368873 0.180097 0.492680 -0.475049 -0.036737 0.232708 -0.013247 0.013540 0.299812 0.723585 0.097529 0.387548 0.017273 -0.132071 -0.244043 -0.186719 0.468006 0.155562 0.168672 -0.114167 -0.596912 0.415463 -0.353213 0.285531 -0.244334 -0.489518 0.105560 0.037356 0.472248 0.255785 0.066866 0.170137 0.193885 0.311830 0.080819 0.397521 0.115827 -0.351329 0.374118 -0.225057 -0.189475 0.258678 -0.135053 0.349821 0.352096 0.495389 0.065200 -0.331231 0.121702 -0.272124 0.122746 -0.513565 -0.246563 -0.137267 -0.311957 0.269067 -0.279280 -0.441216 -0.615296 0.185084 -0.217089 -0.070763 0.026545 -0.207734 0.044251 -0.080778 0.332649 -0.103074 0.223159 0.003727 -0.109347 -0.300899 -0.458869 0.495669 0.612790 -0.742155 -0.203504 -0.089948 -0.160600 0.001928 0.567793 0.450926 0.155804 -0.029530 0.165212 0.132529 -0.271937 0.303629 -0.144274 -0.383945 -0.275597 -0.023951 0.366898 0.212074 -0.257832 0.138354 -0.312903 0.011270 0.109351 0.048131 -0.043300 -0.006305 -0.081173 -0.539102 0.355334 0.009974
25 0.124428 -0.026880 0.045489 0.050371 -0.029721 -0.025297 0.061098 0.082960 0.022532 -0.014661 -0.112380 -0.127562 -0.018676 -0.132624 0.046149 0.033669 -0.071136 0.125142 0.107302 -0.035588 0.229480 0.077714 -0.147529 -0.002182 0.119741 -0.034411 -0.025078 -0.036931 -0.128027 -0.017809 0.015906 0.036068 -0.049515 0.079194 0.056756 -0.012581 -0.007380 -0.040290 0.038208 0.148310 0.004898 -0.000429 -0.017276 0.021344 -0.029961 -0.102441 0.049805 -0.063524 0.047664 0.141655 0.068657 0.052506 0.092239 -0.003623 -0.084150 0.149238 0.027687 0.068962 -0.066246 -0.108324 0.011505 -0.037183 -0.022849 -0.045685 -0.022752 0.085971 0.036207 -0.080282 0.034662 -0.050012 0.040098 0.026742 0.053736 -0.052793 -0.005630 -0.047540 -0.041567 -0.020219 0.035092 0.016285 -0.054128 0.047763 -0.107724 -0.053312 0.069304 0.003302 0.099757 0.045969 0.115331 0.041078 0.096969 0.047659 -0.060993 -0.035081 0.037810 0.005827 0.063307 -0.085815 0.045431 0.000819 -0.067031 -0.010576 0.091790 0.012221 -0.010697 -0.016898 -0.026356 0.084485 -0.184703 -0.002932 0.006679 0.011309 -0.031566 -0.085004 0.098401 0.007105 0.128704 -0.015978 -0.136362 -0.070190 -0.087230 0.035416 0.080990 -0.006053 -0.027391 0.016786 0.050754 0.049206
76 -0.289924 -0.201778 -0.186461 -0.277028 -0.014919 0.045080 -0.597363 0.328693 -0.032496 -0.051986 -0.145254 -0.319291 0.242039 -0.122039 0.113141 -0.062173 -0.092927 -0.025142 -0.243887 0.078976 0.085185 0.060217 0.027165 -0.047580 -0.236121 0.278904 -0.273568 -0.316999 0.012632 0.582776 0.103593 -0.340422 -0.103061 0.179407 0.348406 -0.052708 0.141303 -0.151529 -0.394516 -0.233533 0.070121 -0.013210 0.536543 -0.368549 -0.394304 -0.189999 -0.012490 0.100318 -0.054911 -0.142219 -0.551338 -0.048436 -0.203867 -0.003492 -0.381153 -0.155136 0.075486 -0.017953 -0.038581 -0.235049 -0.190021 -0.021770 -0.072882 -0.045479 0.289668 -0.199582 -0.157625 -0.316467 -0.004363 0.253133 -0.155712 0.432331 -0.118424 0.270262 -0.008204 -0.151492 -0.062151 -0.318063 0.287067 0.292266 0.332945 -0.101279 0.318286 0.132127 -0.307632 0.166857 -0.269763 0.010370 -0.037401 0.166883 -0.309184 -0.183157 -0.177779 0.248399 0.097304 -0.424000 -0.107436 0.456885 -0.248766 -0.089526 0.106141 -0.118738 -0.490242 -0.476004 -0.246215 0.130395 -0.306447 -0.079140 -0.280739 -0.452435 -0.239011 0.204216 0.533705 0.044873 -0.206326 -0.387837 0.451033 0.022763 0.103169 -0.178980 -0.476918 0.071529 -0.062008 0.157322 -0.116103 0.271857 -0.252596 -0.050334
8 0.625818 0.467421 0.276047 0.435810 0.051749 -0.287925 0.366367 -0.162125 -0.510221 -0.032038 -0.556906 0.220018 -0.300992 -0.560099 0.234526 0.150808 -0.133503 0.520621 0.645695 -0.428196 0.318955 -0.000989 0.179589 -0.248840 0.033125 -0.638243 -0.444942 -0.082329 -0.136325 -0.404992 0.161227 0.894482 -0.212674 0.681090 -0.145950 0.737033 0.039416 -0.236141 0.344517 -0.319778 0.278509 0.207656 0.210014 0.459154 0.183530 -0.250452 0.720059 -0.238432 0.339539 0.573790 0.426105 0.045037 0.199950 0.364162 0.309699 0.000684 0.468280 -0.391429 -0.147849 0.025009 -0.117558 -0.237960 -0.001927 -0.261560 -0.203455 -0.069773 0.184210 -0.025005 0.660323 -0.158478 0.314713 -0.144903 -0.298832 -0.251615 -0.052756 0.029688 -0.560950 -0.213446 0.089533 -0.243545 -0.280824 0.030989 0.059013 -0.252923 0.243027 0.097011 0.761336 0.271269 0.203669 -0.088426 -0.082557 -0.017020 0.188500 -0.384810 0.270918 0.250004 -0.540629 -0.208531 0.256216 -0.135679 0.227575 -0.290264 0.158062 0.108992 0.304661 0.225648 0.000910 0.117555 -0.402614 0.035923 -0.106603 -0.241881 -0.501704 -0.179904 0.332558 -0.243678 0.066578 -0.306478 0.334131 0.403942 -0.298606 0.619863 -0.001220 0.136345 0.317270 0.441888 -0.122985 -0.084632
74 0.153051 -0.044835 -0.005489 0.036929 -0.109396 -0.024295 -0.082558 0.214671 0.002436 -0.005118 -0.217957 -0.235044 -0.026846 -0.197243 0.135170 0.014071 -0.075909 0.184929 0.130073 -0.091690 0.275914 0.118599 -0.122069 -0.029484 0.126632 -0.010065 -0.158528 -0.126003 -0.161023 0.056304 0.008140 -0.018327 -0.057703 0.103452 0.097514 0.008078 0.047102 -0.061848 0.007042 0.152290 0.005955 0.051113 0.022024 -0.041661 -0.024375 -0.149098 0.026895 0.001551 0.060453 0.122844 -0.015643 0.097939 0.112493 -0.028467 -0.170384 0.097141 0.056805 -0.012214 -0.072091 -0.113216 -0.015526 -0.043210 -0.054392 -0.069626 -0.029419 0.063523 -0.006280 -0.143074 0.080923 0.033456 -0.005613 0.066188 0.011074 -0.000000 0.017780 -0.070030 -0.002309 -0.120045 0.078294 0.098324 0.022820 0.011539 -0.058534 -0.075004 0.059042 0.066899 0.096881 0.083842 0.160028 0.072696 0.061543 0.051732 -0.081926 0.073288 0.064383 -0.035369 0.009620 0.007985 0.030742 -0.016398 -0.074844 -0.047978 -0.030040 -0.074106 -0.069819 0.013181 -0.059699 0.073246 -0.288106 -0.121843 0.008004 0.059126 0.065902 -0.118015 0.076640 -0.065785 0.240014 -0.082269 -0.048871 -0.144465 -0.167589 -0.043011 0.158086 0.040119 -0.041764 0.082186 -0.004382 0.027668
60 0.185300 -0.188739 -0.030825 0.074954 -0.149422 -0.112056 -0.043262 0.425327 0.111450 -0.062655 -0.402073 -0.486457 -0.064210 -0.366453 0.196907 0.112014 -0.112210 0.328544 0.108302 0.041302 0.594102 0.251692 -0.387403 -0.077673 0.243086 0.132914 -0.135781 -0.206909 -0.367007 -0.008532 -0.057047 -0.205291 -0.141633 0.145865 0.199701 -0.040151 0.119874 -0.146638 -0.056857 0.407772 -0.070462 0.009160 0.150207 -0.148954 -0.018893 -0.352700 0.119236 -0.073217 0.096181 0.336292 -0.061566 0.154560 0.294086 -0.065146 -0.346046 0.269313 0.061976 0.047657 -0.213637 -0.169260 -0.039150 -0.097070 -0.125549 -0.167254 -0.002866 0.177392 -0.053341 -0.339927 0.112514 -0.012739 0.042699 0.227150 0.109986 0.006507 0.058471 -0.140853 0.016647 -0.169691 0.254501 0.248346 0.071515 0.027715 -0.237540 -0.093293 0.171484 0.026925 0.222196 0.140097 0.225115 0.160510 0.207445 0.124049 -0.210835 0.059300 0.195774 -0.257097 0.018597 -0.007275 0.089518 -0.019496 -0.172330 -0.046555 -0.040904 -0.214099 -0.057209 -0.044628 -0.146492 0.242464 -0.513911 -0.176783 0.065069 0.143813 0.040496 -0.258355 0.222551 -0.005376 0.585654 -0.041414 -0.342390 -0.278591 -0.265389 0.048073 0.346114 0.038083 -0.106608 0.249664 0.058638 0.150355
59 0.331070 0.082663 0.106385 0.187851 -0.230468 -0.054770 0.276086 0.065394 -0.033841 -0.093544 -0.209966 -0.166328 -0.144750 -0.248462 0.025193 0.047819 -0.040542 0.207131 0.305285 -0.112810 0.499338 0.109459 -0.345036 -0.018052 0.331736 -0.132936 -0.076939 0.018744 -0.174899 -0.099119 0.046708 0.271737 -0.068208 0.219381 0.015151 0.055202 -0.119272 -0.120090 0.102551 0.332818 0.036616 0.020250 -0.113833 0.183660 0.045783 -0.127371 0.126814 -0.246525 0.156890 0.290373 0.306053 0.116411 0.206646 0.168679 0.025289 0.278815 0.021873 0.153097 -0.133411 -0.045490 0.039315 -0.152662 -0.106992 -0.082579 -0.104549 0.302274 0.113359 0.002510 0.180829 -0.276199 0.019077 -0.081888 0.116360 -0.148844 -0.042947 -0.107062 -0.103039 -0.051426 0.067166 0.006529 -0.236771 0.103789 -0.227903 -0.138781 0.227641 -0.025392 0.259093 0.035375 0.321844 0.082552 0.250995 0.181614 -0.108294 -0.173753 0.040980 0.110979 0.119472 -0.214061 0.097161 0.048636 -0.164011 -0.042733 0.286117 0.090478 0.118289 -0.120839 0.096013 0.146100 -0.261433 0.102076 0.089422 -0.009292 -0.259788 -0.209311 0.307891 0.174677 0.171835 -0.066623 -0.216438 -0.085032 0.020855 0.004347 0.255736 -0.017859 -0.056864 0.015435 0.226237 0.115419
54 0.085230 -0.085413 -0.066880 -0.028026 -0.176703 -0.005688 0.009946 0.158612 0.105450 -0.028704 -0.116107 -0.274601 0.042466 -0.110606 0.014165 -0.047010 -0.042852 0.107885 0.045009 -0.063680 0.315732 0.120885 -0.254087 0.022676 0.189490 0.068349 -0.108872 -0.067366 -0.112048 0.153031 0.029709 -0.035489 -0.003732 0.140607 0.142294 -0.118277 0.008108 -0.118200 0.007058 0.195361 0.002773 -0.018096 -0.032301 -0.087592 -0.131473 -0.055840 -0.082423 -0.113241 0.041925 0.040023 -0.051281 0.145629 0.113849 0.012134 -0.161547 0.126446 0.015237 0.141696 -0.063740 -0.138476 0.071767 -0.096301 -0.140007 0.015041 0.007814 0.131911 -0.003557 -0.033093 0.054017 -0.058210 -0.059695 0.097603 0.091380 -0.035990 -0.014866 -0.123111 -0.016780 -0.068798 0.100295 0.086441 -0.068371 0.013862 -0.065051 -0.018658 0.020372 -0.038945 -0.005536 0.017285 0.165807 0.071225 0.084985 0.048450 -0.155477 0.048041 -0.025744 -0.091838 0.173080 -0.056623 -0.093964 -0.022958 -0.111448 -0.049813 -0.009233 -0.083205 -0.046786 -0.036249 -0.038994 0.109497 -0.224112 -0.096314 -0.007734 0.037094 0.045826 -0.103620 0.147210 0.036865 0.240757 0.035393 -0.191217 -0.188227 -0.060803 -0.065487 0.169470 0.050529 -0.096420 -0.004877 0.098423 0.058944
4 0.503858 0.293049 0.231072 0.339761 0.044322 -0.229808 0.260652 -0.011114 -0.355074 -0.036655 -0.508181 0.037981 -0.218604 -0.518113 0.235398 0.159401 -0.163071 0.467133 0.520007 -0.292397 0.416971 0.071968 0.007599 -0.195158 0.070597 -0.457558 -0.317425 -0.122616 -0.206696 -0.306519 0.108892 0.599934 -0.220237 0.541644 -0.030674 0.513388 0.030858 -0.205288 0.223519 -0.121198 0.194080 0.133824 0.224854 0.310151 0.096810 -0.300680 0.589372 -0.194486 0.268600 0.544071 0.316249 0.038861 0.206152 0.254017 0.130718 0.111334 0.351009 -0.236989 -0.166529 -0.065927 -0.112896 -0.182243 -0.007751 -0.237919 -0.122583 0.002302 0.132636 -0.129972 0.480502 -0.134779 0.257777 -0.027475 -0.172094 -0.186699 -0.037214 -0.014728 -0.426715 -0.177802 0.130215 -0.124140 -0.186689 0.058300 -0.032373 -0.203425 0.220292 0.086420 0.612507 0.232200 0.217760 -0.003887 0.008380 0.019790 0.070789 -0.304820 0.260998 0.127448 -0.378343 -0.163675 0.234919 -0.097629 0.119395 -0.201746 0.145653 0.042609 0.203651 0.153357 -0.053947 0.147337 -0.451167 -0.008236 -0.084962 -0.140500 -0.343671 -0.189072 0.292143 -0.198952 0.204284 -0.230560 0.116975 0.229349 -0.334524 0.505784 0.040217 0.090681 0.191551 0.374339 -0.069413 -0.017852
15 0.105796 -0.063048 0.088240 0.021824 0.035798 -0.011648 0.038027 0.111103 0.021657 -0.004235 -0.135714 -0.167097 0.029914 -0.154269 0.064064 0.033663 -0.115322 0.145371 0.117217 -0.016043 0.276686 0.102927 -0.196369 0.005269 0.104079 -0.045554 0.015001 -0.072852 -0.160385 -0.015388 0.030290 -0.000280 -0.084568 0.081168 0.120376 -0.041985 -0.018401 -0.047101 0.020520 0.148657 0.007685 -0.054616 0.030541 -0.002948 -0.101386 -0.138361 0.063012 -0.066482 0.028509 0.182338 0.047929 0.035427 0.083189 -0.023483 -0.130141 0.190830 0.029503 0.099668 -0.070885 -0.184328 0.001015 -0.020659 -0.012259 -0.034939 0.014688 0.081224 0.031983 -0.113354 -0.013193 -0.039889 0.071969 0.087451 0.067093 -0.062198 -0.030871 -0.061193 -0.068462 0.008210 0.050968 0.019082 -0.024533 0.067029 -0.135480 -0.029982 0.037393 -0.000336 0.076323 0.057777 0.107586 0.070165 0.087973 0.025135 -0.082297 -0.058946 0.036851 -0.022795 0.076928 -0.090404 0.040894 -0.013433 -0.070211 0.022115 0.097497 -0.000021 -0.022737 -0.004176 -0.077149 0.089376 -0.247663 -0.009065 -0.032758 0.009909 0.032090 -0.078804 0.084520 -0.030103 0.181173 0.015088 -0.214531 -0.084443 -0.165672 0.095335 0.027628 -0.013630 -0.047208 0.003725 0.044323 0.063800
0 0.573954 0.329591 0.252018 0.389382 0.027562 -0.255948 0.323018 -0.029590 -0.378110 -0.040029 -0.539467 0.058101 -0.260345 -0.547517 0.244485 0.163894 -0.158694 0.510678 0.579847 -0.328863 0.436935 0.070342 0.015672 -0.207333 0.109965 -0.507892 -0.336989 -0.101769 -0.225366 -0.370081 0.107759 0.679452 -0.211675 0.563724 -0.065085 0.554805 0.034738 -0.212137 0.278110 -0.098522 0.199788 0.154459 0.177631 0.359129 0.144352 -0.299170 0.622609 -0.209273 0.298136 0.582738 0.383344 0.061456 0.248672 0.260115 0.162596 0.125240 0.378465 -0.264105 -0.175116 -0.054959 -0.094792 -0.198778 -0.005597 -0.250350 -0.166273 0.016123 0.157049 -0.106836 0.523787 -0.158158 0.284481 -0.070406 -0.177321 -0.223806 -0.034834 -0.003746 -0.446304 -0.175170 0.116447 -0.157984 -0.228025 0.063502 -0.055476 -0.232396 0.258610 0.085102 0.681393 0.257371 0.243351 -0.025258 0.030958 0.034867 0.097208 -0.334656 0.266397 0.180123 -0.395597 -0.223079 0.263564 -0.100580 0.114329 -0.214795 0.191861 0.087417 0.234396 0.154163 -0.025870 0.165540 -0.469176 0.027008 -0.064197 -0.170209 -0.412043 -0.213901 0.332009 -0.179656 0.183210 -0.250894 0.123374 0.247257 -0.311726 0.525780 0.067235 0.087596 0.216761 0.376472 -0.060391 -0.019374
7 0.483549 0.246011 0.216540 0.335118 0.024963 -0.230106 0.288070 0.017561 -0.289255 -0.047895 -0.487833 -0.014432 -0.216741 -0.500147 0.222560 0.163688 -0.160519 0.461834 0.477941 -0.234113 0.464384 0.095726 -0.070981 -0.182783 0.115936 -0.399622 -0.265351 -0.107527 -0.240325 -0.320099 0.076454 0.525838 -0.208474 0.499737 -0.016260 0.451432 0.028340 -0.205320 0.213817 -0.018166 0.153805 0.112877 0.189238 0.274405 0.104122 -0.303704 0.562835 -0.201763 0.255503 0.553419 0.315807 0.055998 0.241940 0.226277 0.099271 0.169703 0.313107 -0.178412 -0.188260 -0.073153 -0.093334 -0.177384 -0.019493 -0.224326 -0.124380 0.047320 0.115031 -0.141182 0.441312 -0.159916 0.257685 -0.004854 -0.116541 -0.181426 -0.025126 -0.024076 -0.388315 -0.147576 0.149336 -0.091943 -0.191882 0.065042 -0.093294 -0.194023 0.241240 0.051753 0.600942 0.230745 0.227685 0.004800 0.068164 0.051617 0.036977 -0.301454 0.257232 0.089108 -0.323618 -0.193371 0.240904 -0.084707 0.070949 -0.179125 0.172320 0.043576 0.207418 0.112066 -0.045453 0.181108 -0.448283 0.011658 -0.047101 -0.127933 -0.349803 -0.215112 0.321897 -0.139510 0.243265 -0.196297 0.008025 0.171820 -0.304573 0.484312 0.088389 0.068949 0.160162 0.346624 -0.021601 0.019912
64 -0.077788 -0.099110 -0.003438 -0.269460 0.079778 0.061439 -0.482957 0.296353 -0.123371 0.054909 -0.321822 -0.367951 0.338215 -0.294607 0.160099 -0.100915 -0.254599 0.223365 0.068656 -0.201052 0.314737 0.107082 -0.058691 0.004207 -0.075238 0.014228 -0.429264 -0.390546 -0.078599 0.642213 0.333554 -0.046857 -0.192061 0.443630 0.472793 0.003064 0.042367 -0.210381 -0.197744 -0.341483 0.228726 -0.062931 0.507098 -0.247958 -0.594248 -0.265232 0.074685 -0.040463 0.008916 0.018457 -0.446627 0.033156 -0.184124 0.056862 -0.367076 -0.083862 0.171723 0.047570 -0.006266 -0.479014 -0.112918 -0.080099 -0.096019 0.003170 0.244537 -0.107164 -0.054205 -0.304635 0.080196 0.184805 -0.050467 0.380680 -0.164165 0.114730 -0.161665 -0.265528 -0.272937 -0.278316 0.219058 0.146541 0.228472 -0.040073 0.287385 0.105407 -0.333107 0.180114 -0.174349 0.058741 0.128741 0.195681 -0.365636 -0.224366 -0.247789 0.193549 0.022194 -0.308443 -0.039213 0.311124 -0.316802 -0.141521 0.103026 -0.156553 -0.361875 -0.374528 -0.253882 0.225359 -0.354000 -0.071613 -0.552705 -0.476926 -0.433517 0.068813 0.557839 0.042775 -0.119369 -0.505969 0.492784 0.033775 0.058256 -0.112967 -0.674832 0.194244 -0.198956 0.271824 -0.165205 0.184930 -0.226486 -0.032127
9 0.347038 0.190377 0.139862 0.235780 0.003643 -0.180057 0.247016 -0.032381 -0.210330 -0.044794 -0.344547 0.002132 -0.153512 -0.346265 0.129610 0.099832 -0.109618 0.320872 0.338137 -0.180567 0.343590 0.060471 -0.057744 -0.132936 0.078848 -0.297617 -0.204452 -0.054096 -0.151093 -0.220333 0.071728 0.425493 -0.139967 0.417487 -0.009680 0.331520 0.016586 -0.184938 0.169690 -0.042710 0.121090 0.071822 0.144692 0.203787 0.047130 -0.192386 0.414851 -0.189088 0.198127 0.386507 0.226007 0.058708 0.176661 0.202355 0.099764 0.112604 0.241515 -0.111909 -0.134348 -0.046686 -0.050062 -0.161657 -0.041344 -0.147560 -0.081967 0.032885 0.090016 -0.054995 0.351249 -0.142354 0.182693 0.003649 -0.083565 -0.148011 -0.030112 -0.031379 -0.317381 -0.106017 0.123406 -0.087440 -0.173186 0.041692 -0.046298 -0.122251 0.164354 0.001067 0.442227 0.157191 0.160000 -0.009125 0.037765 0.024615 0.019514 -0.242870 0.175891 0.054212 -0.227674 -0.163548 0.137074 -0.077488 0.067248 -0.150974 0.120720 0.022891 0.173314 0.086392 -0.029461 0.145103 -0.303610 0.011255 -0.055604 -0.119602 -0.282062 -0.148262 0.271524 -0.088977 0.168190 -0.122017 -0.000935 0.151121 -0.192955 0.386659 0.058590 0.061629 0.118949 0.261691 0.003007 0.014602
6 0.485156 0.236372 0.218341 0.309301 0.017676 -0.226172 0.295994 0.005782 -0.284398 -0.048507 -0.488985 -0.036009 -0.183857 -0.498521 0.200948 0.139248 -0.174435 0.466905 0.496027 -0.265310 0.503242 0.101629 -0.102362 -0.161541 0.131775 -0.408402 -0.282310 -0.107949 -0.234085 -0.264887 0.116803 0.557363 -0.212784 0.554990 0.019300 0.430583 0.014601 -0.233559 0.220862 -0.032917 0.169696 0.090001 0.191125 0.273171 0.029926 -0.287305 0.537334 -0.243907 0.261895 0.543729 0.301126 0.077394 0.229925 0.245591 0.085935 0.180233 0.324396 -0.137462 -0.176505 -0.128351 -0.074139 -0.202182 -0.040612 -0.201873 -0.102157 0.055975 0.134343 -0.112404 0.443090 -0.174175 0.247779 0.008790 -0.108566 -0.206736 -0.049950 -0.056205 -0.422783 -0.150980 0.150505 -0.110522 -0.216362 0.075366 -0.084091 -0.177652 0.214923 0.039659 0.571432 0.214292 0.244405 0.008410 0.051036 0.030372 0.007691 -0.307887 0.219468 0.089293 -0.269167 -0.216809 0.192875 -0.095704 0.071937 -0.187236 0.179374 0.040563 0.198116 0.120812 -0.066618 0.183725 -0.484428 -0.003111 -0.090958 -0.144036 -0.324162 -0.206757 0.337189 -0.155323 0.254331 -0.174172 -0.020069 0.165951 -0.324459 0.493788 0.064695 0.085413 0.140190 0.319506 -0.003530 0.014602
11 0.139911 0.019154 0.059945 0.049429 -0.013430 -0.043485 0.076473 0.048327 -0.033497 -0.014909 -0.146352 -0.102815 -0.001356 -0.156259 0.046234 0.012032 -0.087252 0.152852 0.144269 -0.085923 0.247202 0.064257 -0.131581 -0.015601 0.094733 -0.096788 -0.075898 -0.056653 -0.106339 -0.005156 0.061424 0.127287 -0.068588 0.185107 0.080385 0.045780 -0.015621 -0.094375 0.058761 0.059380 0.054673 -0.014296 0.045135 0.039418 -0.087250 -0.096510 0.097680 -0.107583 0.061963 0.155064 0.062321 0.054730 0.071300 0.060909 -0.047067 0.114538 0.083326 0.047536 -0.059280 -0.126069 0.008999 -0.076422 -0.045138 -0.033961 -0.000856 0.058372 0.051606 -0.048192 0.090823 -0.066841 0.062478 0.048439 0.014368 -0.074817 -0.034730 -0.062317 -0.125657 -0.034645 0.053322 -0.014588 -0.081890 0.045370 -0.062664 -0.034746 0.040249 -0.007833 0.117189 0.057579 0.113045 0.043484 0.035995 0.008611 -0.060900 -0.076446 0.024703 0.002689 0.020725 -0.085931 0.008500 -0.034579 -0.025403 -0.040718 0.067082 -0.006855 0.023023 0.023530 -0.047102 0.084076 -0.215795 -0.020006 -0.049224 -0.032984 -0.033786 -0.070630 0.118640 -0.042489 0.140049 -0.014941 -0.105521 -0.020783 -0.137679 0.128249 0.032225 0.028669 -0.016438 0.046544 0.035299 0.030108
14 0.131522 -0.020445 0.088867 0.036446 0.005380 -0.024713 0.103030 0.056190 0.009486 -0.002932 -0.126664 -0.135373 0.026400 -0.147982 0.031531 0.008706 -0.110789 0.149013 0.146759 -0.065386 0.287832 0.086922 -0.200895 0.010314 0.131002 -0.086444 -0.019707 -0.045933 -0.134036 -0.007272 0.062895 0.090020 -0.073346 0.149801 0.106157 -0.016534 -0.039956 -0.082484 0.061065 0.119255 0.032803 -0.050796 0.007999 0.037340 -0.128649 -0.097551 0.062066 -0.121662 0.049968 0.172867 0.075015 0.061254 0.082509 0.032147 -0.084828 0.180653 0.052841 0.115846 -0.061152 -0.175534 0.028845 -0.063207 -0.039817 -0.012794 0.007076 0.100745 0.060373 -0.047551 0.039313 -0.084724 0.073367 0.065018 0.065497 -0.095145 -0.052520 -0.073438 -0.117840 0.007411 0.042812 -0.017908 -0.091401 0.067811 -0.115951 -0.028038 0.041978 -0.024454 0.092053 0.045328 0.124564 0.054060 0.078002 0.012042 -0.083081 -0.092998 0.002124 0.004762 0.092338 -0.133464 0.005113 -0.021200 -0.059178 -0.004446 0.114231 0.016148 0.015258 -0.000750 -0.055698 0.101388 -0.238844 0.006358 -0.049363 -0.026457 -0.017795 -0.075889 0.127672 -0.011550 0.150390 0.023188 -0.201559 -0.051846 -0.136945 0.113813 0.025156 0.003198 -0.044613 -0.012341 0.069009 0.053568
24 0.119255 -0.005943 0.036545 0.011400 -0.050668 -0.024861 0.085714 0.048052 0.005860 -0.016403 -0.118511 -0.141498 0.032329 -0.133778 0.013131 -0.016469 -0.083060 0.126720 0.120584 -0.086406 0.275407 0.072155 -0.185571 0.009496 0.121858 -0.056217 -0.071885 -0.046810 -0.095011 0.052371 0.076246 0.104587 -0.058823 0.193009 0.109156 -0.014186 -0.030317 -0.115690 0.047183 0.087988 0.047919 -0.039746 0.014044 0.013102 -0.138540 -0.070844 0.042934 -0.141306 0.053722 0.121649 0.034898 0.080873 0.070210 0.068282 -0.069661 0.127184 0.065280 0.104646 -0.053152 -0.150883 0.033220 -0.088979 -0.084714 -0.001582 0.008363 0.092304 0.046586 -0.017307 0.086015 -0.086752 0.025528 0.063644 0.043998 -0.083642 -0.049946 -0.090242 -0.124837 -0.026194 0.062431 -0.000305 -0.100333 0.041600 -0.061754 -0.023917 0.024309 -0.029177 0.071457 0.033272 0.126665 0.048547 0.038551 0.009082 -0.093633 -0.061813 -0.009801 -0.021208 0.091275 -0.098352 -0.042692 -0.030390 -0.049060 -0.038164 0.057726 -0.022915 0.009255 0.003087 -0.044913 0.087354 -0.213328 -0.026339 -0.055345 -0.022433 -0.013454 -0.076814 0.135048 -0.009669 0.157537 0.019359 -0.146728 -0.055986 -0.111417 0.083154 0.050538 0.035151 -0.041540 0.011448 0.069742 0.038183
13 0.119805 -0.026498 0.047886 0.033683 -0.021687 -0.040769 0.050723 0.095936 0.001745 -0.020389 -0.158624 -0.163141 0.010099 -0.166533 0.053727 0.021668 -0.096231 0.154967 0.120962 -0.050876 0.292250 0.091468 -0.179689 -0.015513 0.112481 -0.045519 -0.060640 -0.072331 -0.129105 0.026472 0.048017 0.060450 -0.076587 0.173619 0.115346 0.001427 -0.012295 -0.103005 0.019768 0.112542 0.038625 -0.024382 0.060951 0.002726 -0.107607 -0.124818 0.085347 -0.110716 0.058627 0.165444 0.035487 0.059367 0.089696 0.040869 -0.105465 0.154729 0.065590 0.079479 -0.073240 -0.157232 0.004136 -0.068526 -0.054477 -0.035918 0.018090 0.076994 0.031607 -0.087221 0.072620 -0.059589 0.051049 0.084291 0.039982 -0.062615 -0.033777 -0.079065 -0.105892 -0.042227 0.086496 0.019508 -0.058361 0.043703 -0.081447 -0.034655 0.037096 -0.002093 0.103830 0.056751 0.123768 0.057026 0.061391 0.019458 -0.092130 -0.064689 0.038775 -0.043196 0.051130 -0.080185 0.003761 -0.028141 -0.049554 -0.033160 0.058070 -0.035899 -0.000702 0.005670 -0.065375 0.096539 -0.257193 -0.035471 -0.044425 0.000613 -0.002336 -0.089379 0.120768 -0.034209 0.202601 -0.000057 -0.164990 -0.072140 -0.158356 0.118390 0.059813 0.026758 -0.041457 0.054597 0.040846 0.051028
5 0.416225 0.243236 0.160257 0.280875 -0.023206 -0.219361 0.280207 -0.028385 -0.269972 -0.057653 -0.417297 -0.001486 -0.183799 -0.426563 0.162180 0.115220 -0.118486 0.393490 0.408072 -0.240745 0.415278 0.069442 -0.054202 -0.163438 0.100032 -0.349779 -0.276958 -0.076644 -0.172504 -0.227333 0.103237 0.525184 -0.174489 0.526233 -0.008381 0.414898 0.015428 -0.227848 0.194815 -0.066633 0.161450 0.105044 0.187412 0.246865 0.056269 -0.233046 0.498575 -0.236000 0.244011 0.452355 0.254442 0.066244 0.204796 0.260055 0.124717 0.112036 0.295221 -0.149154 -0.155537 -0.050447 -0.071345 -0.202017 -0.063422 -0.181106 -0.096525 0.033114 0.106963 -0.071482 0.451902 -0.174696 0.200779 -0.001620 -0.116447 -0.172948 -0.038125 -0.042397 -0.389192 -0.156754 0.155648 -0.096533 -0.206420 0.037659 -0.026442 -0.151942 0.196945 0.020232 0.523613 0.183549 0.203931 -0.003729 0.022101 0.031959 0.017182 -0.275997 0.213328 0.060341 -0.281623 -0.169931 0.154956 -0.092237 0.089933 -0.201167 0.125271 0.018232 0.211104 0.108870 -0.035688 0.157032 -0.372220 -0.006953 -0.073981 -0.137593 -0.330974 -0.187817 0.321962 -0.117875 0.217146 -0.163805 0.034038 0.182106 -0.245828 0.445652 0.074494 0.092410 0.139761 0.321210 -0.002810 0.007345
56 0.027568 -0.044118 -0.045516 0.002423 -0.105865 -0.058327 0.142233 0.016017 0.070634 -0.065574 -0.051129 -0.141814 0.019847 -0.061222 -0.052401 -0.015126 -0.018091 0.048045 -0.018044 0.032200 0.258886 0.067289 -0.242658 0.002711 0.108496 0.069271 0.000587 0.009111 -0.052985 0.043681 0.014540 0.016857 -0.019842 0.179598 0.095770 -0.067538 -0.025014 -0.144409 0.005208 0.148141 -0.004906 -0.052723 0.041774 -0.048269 -0.096193 -0.018652 0.034699 -0.179127 0.047329 0.080345 -0.008791 0.078891 0.105265 0.097052 -0.035864 0.123343 0.014965 0.156329 -0.077545 -0.054857 0.048665 -0.112968 -0.120211 0.017357 0.040366 0.116968 -0.004838 0.021168 0.085581 -0.144987 -0.016607 0.104640 0.101462 -0.049875 -0.020863 -0.089365 -0.077936 -0.014873 0.134824 0.044696 -0.110515 0.016596 -0.066626 0.023428 0.043957 -0.112402 0.052936 -0.005995 0.087522 0.034476 0.084154 0.038487 -0.125887 -0.085263 0.014092 -0.134627 0.108108 -0.085356 -0.065903 -0.024488 -0.056037 -0.044607 0.035811 -0.063604 0.060654 -0.057224 -0.021193 0.124324 -0.094507 -0.010829 -0.007150 -0.012224 -0.088788 -0.084520 0.191231 0.093943 0.190022 0.078835 -0.239811 -0.067225 0.011150 0.091398 0.108273 0.025604 -0.061098 0.045419 0.138082 0.072922
75 0.122387 -0.089977 -0.035778 -0.019894 -0.144879 -0.001813 -0.077114 0.235598 0.066232 -0.003632 -0.196037 -0.303290 0.037585 -0.171379 0.085904 -0.038499 -0.078452 0.157628 0.098567 -0.109966 0.322291 0.136947 -0.206610 0.007126 0.172928 0.033204 -0.164041 -0.127570 -0.149687 0.145916 0.046973 -0.047597 -0.035722 0.125671 0.156745 -0.084569 0.029169 -0.089663 0.004488 0.169132 0.006164 0.005207 -0.008043 -0.081327 -0.135300 -0.111260 -0.073553 -0.050900 0.045142 0.063491 -0.062976 0.138782 0.101744 -0.030148 -0.215948 0.111017 0.044200 0.071643 -0.062937 -0.174506 0.033194 -0.070344 -0.106135 -0.010968 0.000095 0.102476 -0.001354 -0.101414 0.051149 0.019501 -0.037035 0.098294 0.050460 -0.018466 -0.008403 -0.113039 0.001064 -0.104971 0.080130 0.097421 0.001836 0.012502 -0.058248 -0.046971 0.021766 0.027813 0.007087 0.046492 0.179305 0.088796 0.053903 0.038217 -0.135392 0.098665 -0.002688 -0.066723 0.118079 -0.016849 -0.062518 -0.023222 -0.102190 -0.041921 -0.041666 -0.101568 -0.091852 -0.004915 -0.068271 0.084000 -0.317135 -0.146393 -0.028039 0.054288 0.121113 -0.112893 0.092513 -0.037938 0.269603 -0.022409 -0.119527 -0.201219 -0.162995 -0.083063 0.159565 0.054791 -0.094481 0.013484 0.034874 0.042563
